{"learner":{"attributes":{"scikit_learn":"{\"_estimator_type\": \"regressor\"}"},"feature_names":["voltaje","corriente","potencia","frecuencia","fp","ESP32_temp","WORKSTATION_CPU","WORKSTATION_CPU_POWER","WORKSTATION_CPU_TEMP","WORKSTATION_GPU","WORKSTATION_GPU_POWER","WORKSTATION_GPU_TEMP","WORKSTATION_RAM","WORKSTATION_RAM_POWER","hour","day"],"feature_types":["float","float","float","float","float","float","float","float","float","float","float","float","float","float","float","float"],"gradient_booster":{"model":{"gbtree_model_param":{"num_parallel_tree":"1","num_trees":"100"},"iteration_indptr":[0,1,2,3,4,5,6,7,8,9,10,11,12,13,14,15,16,17,18,19,20,21,22,23,24,25,26,27,28,29,30,31,32,33,34,35,36,37,38,39,40,41,42,43,44,45,46,47,48,49,50,51,52,53,54,55,56,57,58,59,60,61,62,63,64,65,66,67,68,69,70,71,72,73,74,75,76,77,78,79,80,81,82,83,84,85,86,87,88,89,90,91,92,93,94,95,96,97,98,99,100],"tree_info":[0,0,0,0,0,0,0,0,0,0,0,0,0,0,0,0,0,0,0,0,0,0,0,0,0,0,0,0,0,0,0,0,0,0,0,0,0,0,0,0,0,0,0,0,0,0,0,0,0,0,0,0,0,0,0,0,0,0,0,0,0,0,0,0,0,0,0,0,0,0,0,0,0,0,0,0,0,0,0,0,0,0,0,0,0,0,0,0,0,0,0,0,0,0,0,0,0,0,0,0],"trees":[{"base_weights":[-5.7837933E-6,-6.139477E0,6.044269E1,-2.6698414E1,1.7847109E1,-3.5021923E1,2.2996878E1,3.4489746E0,2.7368038E1,-4.5528435E1,-1.9906466E1,-2.41383E1,1.4543057E1,1.0622261E1,-1.3578618E1,2.0944487E1,3.7771225E1,8.317415E0,-4.677525E1,-2.796205E1,-1.2110382E1,1.1088495E0,-5.193541E1,2.1639159E0,1.4188982E1,2.4459911E1,-2.4883833E1,2.533584E1,1.4457957E1,3.5765728E1,3.97414E1,-7.5140095E-1,3.2354999E0,-1.604228E1,-1.1755112E1,-9.072791E0,-7.5495143E0,-4.3248806E0,-2.7516208E0,-2.5502588E1,4.0506366E-1,-1.6461346E1,-1.4941433E1,-1.0145729E1,6.827632E-1,3.521272E0,6.0268035E0,1.2967355E1,2.910007E0,-4.50664E1,-6.748615E0,6.884666E0,8.404267E0,4.8508673E0,-1.0255233E1,1.0414065E1,1.0995263E1,1.1622058E1,1.2251693E1],"categories":[],"categories_nodes":[],"categories_segments":[],"categories_sizes":[],"default_left":[0,0,0,0,0,0,0,0,0,0,0,0,0,0,0,0,0,0,0,0,0,0,0,0,0,0,0,0,0,0,0,0,0,0,0,0,0,0,0,0,0,0,0,0,0,0,0,0,0,0,0,0,0,0,0,0,0,0,0],"id":0,"left_children":[1,3,-1,5,7,9,11,13,15,17,19,21,-1,23,25,27,29,31,33,35,37,39,41,43,45,47,49,51,53,55,57,-1,-1,-1,-1,-1,-1,-1,-1,-1,-1,-1,-1,-1,-1,-1,-1,-1,-1,-1,-1,-1,-1,-1,-1,-1,-1,-1,-1],"loss_changes":[6.358066E7,2.4598726E7,0E0,1.1111152E7,3.155845E6,3.652854E6,4.6298365E6,1.119592E6,9.25276E5,9.11556E5,5.9226075E5,9.4959E5,0E0,1.9452638E5,1.1690105E6,2.43747E5,1.9476E4,8.251969E3,6.72508E5,2.883675E4,3.2369375E4,1.4872512E4,1.295375E3,7.78791E3,6.5373875E4,1.7212897E5,6.237854E5,3.201975E4,2.887845E5,1.178E3,1.3395E3,0E0,0E0,0E0,0E0,0E0,0E0,0E0,0E0,0E0,0E0,0E0,0E0,0E0,0E0,0E0,0E0,0E0,0E0,0E0,0E0,0E0,0E0,0E0,0E0,0E0,0E0,0E0,0E0],"parents":[2147483647,0,0,1,1,3,3,4,4,5,5,6,6,7,7,8,8,9,9,10,10,11,11,13,13,14,14,15,15,16,16,17,17,18,18,19,19,20,20,21,21,22,22,23,23,24,24,25,25,26,26,27,27,28,28,29,29,30,30],"right_children":[2,4,-1,6,8,10,12,14,16,18,20,22,-1,24,26,28,30,32,34,36,38,40,42,44,46,48,50,52,54,56,58,-1,-1,-1,-1,-1,-1,-1,-1,-1,-1,-1,-1,-1,-1,-1,-1,-1,-1,-1,-1,-1,-1,-1,-1,-1,-1,-1,-1],"split_conditions":[2.9E1,4.9998217E0,6.044269E1,9.2561406E-1,3.779E1,1.7E1,1.1E1,1E1,9.3016666E-1,4E0,2.2E1,1.1957667E2,1.4543057E1,1.1957667E2,1.08421425E2,1E1,1.3E1,2.313889E1,4.3089285E0,1.9E1,2.5E1,7.2160715E-1,9E0,8.4267855E-1,4E0,6.666667E-2,6.9814286E0,3.791E1,1.19605E2,1.2E1,1.4E1,-7.5140095E-1,3.2354999E0,-1.604228E1,-1.1755112E1,-9.072791E0,-7.5495143E0,-4.3248806E0,-2.7516208E0,-2.5502588E1,4.0506366E-1,-1.6461346E1,-1.4941433E1,-1.0145729E1,6.827632E-1,3.521272E0,6.0268035E0,1.2967355E1,2.910007E0,-4.50664E1,-6.748615E0,6.884666E0,8.404267E0,4.8508673E0,-1.0255233E1,1.0414065E1,1.0995263E1,1.1622058E1,1.2251693E1],"split_indices":[15,6,0,4,7,15,15,15,4,15,15,0,0,0,2,15,15,7,6,15,15,1,15,1,15,9,11,7,0,15,15,0,0,0,0,0,0,0,0,0,0,0,0,0,0,0,0,0,0,0,0,0,0,0,0,0,0,0,0],"split_type":[0,0,0,0,0,0,0,0,0,0,0,0,0,0,0,0,0,0,0,0,0,0,0,0,0,0,0,0,0,0,0,0,0,0,0,0,0,0,0,0,0,0,0,0,0,0,0,0,0,0,0,0,0,0,0,0,0,0,0],"sum_hessian":[5.1399E4,4.988E4,1.519E3,2.6859E4,2.3021E4,2.3006E4,3.853E3,9.164E3,1.3857E4,1.3571E4,9.435E3,1.352E3,2.501E3,6.448E3,2.716E3,8.569E3,5.288E3,3.07E2,1.3264E4,4.639E3,4.796E3,7.09E2,6.43E2,1.913E3,4.535E3,6.22E2,2.094E3,5.108E3,3.461E3,2.63E3,2.658E3,5.7E1,2.5E2,7.043E3,6.221E3,2.55E3,2.089E3,2.685E3,2.111E3,1E0,7.08E2,2.6E2,3.83E2,5E0,1.908E3,3.206E3,1.329E3,2.73E2,3.49E2,3.8E1,2.056E3,2.706E3,2.402E3,3.344E3,1.17E2,1.22E3,1.41E3,1.409E3,1.249E3],"tree_param":{"num_deleted":"0","num_feature":"16","num_nodes":"59","size_leaf_vector":"1"}},{"base_weights":[-2.2210681E-4,-4.2990704E0,4.2321815E1,-1.8692276E1,1.2493815E1,-2.4517475E1,1.6086927E1,2.4103677E0,1.916161E1,-3.2834854E1,-1.495455E1,-1.6938564E1,3.3939606E1,5.8856316E0,-1.5169675E1,1.4662299E1,2.644842E1,5.830253E0,-3.382477E1,-2.0210047E1,-8.478747E0,7.4084985E-1,-3.640354E1,3.30378E1,1.0471833E1,5.054644E0,3.0574688E1,-1.3404523E2,-1.2756308E1,1.7738085E1,1.0119016E1,2.5141258E1,2.7944855E1,-5.298664E-1,2.2687159E0,-1.129028E1,-8.654467E0,-6.7525473E0,-5.5352106E0,-2.5305367E0,-3.2655964E1,-2.1677198E1,2.837171E-1,-1.1820773E1,-1.0538271E1,9.924755E0,5.3349767E0,2.2001574E0,-1.7821335E0,-1.2445479E1,9.397837E0,-5.043888E1,5.894303E-1,2.8401E0,-5.5969477E0,4.5679264E0,5.7513857E0,-1.038804E1,3.3279212E0,7.3465457E0,7.8004804E0,8.094795E0,8.528941E0],"categories":[],"categories_nodes":[],"categories_segments":[],"categories_sizes":[],"default_left":[0,0,0,0,0,0,0,0,0,0,0,0,0,0,0,0,0,0,0,0,0,0,0,0,0,0,0,0,0,0,0,0,0,0,0,0,0,0,0,0,0,0,0,0,0,0,0,0,0,0,0,0,0,0,0,0,0,0,0,0,0,0,0],"id":1,"left_children":[1,3,-1,5,7,9,11,13,15,17,19,21,23,25,27,29,31,33,35,37,39,41,43,45,-1,47,49,51,53,55,57,59,61,-1,-1,-1,-1,-1,-1,-1,-1,-1,-1,-1,-1,-1,-1,-1,-1,-1,-1,-1,-1,-1,-1,-1,-1,-1,-1,-1,-1,-1,-1],"loss_changes":[3.1172192E7,1.2056644E7,0E0,5.442118E6,1.5478232E6,1.82945E6,2.2728685E6,5.600275E5,4.539555E5,4.71135E5,3.6412375E5,4.656341E5,1.02725E3,1.5685662E5,4.323551E5,1.19579125E5,9.643E3,4.0660518E3,2.26355E5,2.347525E4,2.0087281E4,1.0686678E4,1.08025E3,3.07375E2,0E0,1.8561406E5,1.4782422E4,1.3940475E5,1.9476108E5,1.8099E4,1.512749E5,9.54125E2,3.795E2,0E0,0E0,0E0,0E0,0E0,0E0,0E0,0E0,0E0,0E0,0E0,0E0,0E0,0E0,0E0,0E0,0E0,0E0,0E0,0E0,0E0,0E0,0E0,0E0,0E0,0E0,0E0,0E0,0E0,0E0],"parents":[2147483647,0,0,1,1,3,3,4,4,5,5,6,6,7,7,8,8,9,9,10,10,11,11,12,12,13,13,14,14,15,15,16,16,17,17,18,18,19,19,20,20,21,21,22,22,23,23,25,25,26,26,27,27,28,28,29,29,30,30,31,31,32,32],"right_children":[2,4,-1,6,8,10,12,14,16,18,20,22,24,26,28,30,32,34,36,38,40,42,44,46,-1,48,50,52,54,56,58,60,62,-1,-1,-1,-1,-1,-1,-1,-1,-1,-1,-1,-1,-1,-1,-1,-1,-1,-1,-1,-1,-1,-1,-1,-1,-1,-1,-1,-1,-1,-1],"split_conditions":[2.9E1,4.9998217E0,4.2321815E1,9.2561406E-1,3.779E1,1.6E1,1.1E1,1.1363301E2,9.3016666E-1,4E0,2.2E1,1.1957667E2,1.9E1,9.457143E-1,5.59125E0,1E1,3.82E1,2.313889E1,2.18575E1,1.8E1,9.1E-1,7.2160715E-1,8E0,7.335714E-1,1.0471833E1,1E1,1.1E1,6.9814286E0,1E1,3.789E1,2.2E1,3.812E1,3.822E1,-5.298664E-1,2.2687159E0,-1.129028E1,-8.654467E0,-6.7525473E0,-5.5352106E0,-2.5305367E0,-3.2655964E1,-2.1677198E1,2.837171E-1,-1.1820773E1,-1.0538271E1,9.924755E0,5.3349767E0,2.2001574E0,-1.7821335E0,-1.2445479E1,9.397837E0,-5.043888E1,5.894303E-1,2.8401E0,-5.5969477E0,4.5679264E0,5.7513857E0,-1.038804E1,3.3279212E0,7.3465457E0,7.8004804E0,8.094795E0,8.528941E0],"split_indices":[15,6,0,4,7,15,15,2,4,15,15,0,15,4,6,15,7,7,12,15,4,1,15,1,0,15,15,11,15,7,15,7,7,0,0,0,0,0,0,0,0,0,0,0,0,0,0,0,0,0,0,0,0,0,0,0,0,0,0,0,0,0,0],"split_type":[0,0,0,0,0,0,0,0,0,0,0,0,0,0,0,0,0,0,0,0,0,0,0,0,0,0,0,0,0,0,0,0,0,0,0,0,0,0,0,0,0,0,0,0,0,0,0,0,0,0,0,0,0,0,0,0,0,0,0,0,0,0,0],"sum_hessian":[5.1399E4,4.988E4,1.519E3,2.6859E4,2.3021E4,2.3006E4,3.853E3,9.164E3,1.3857E4,1.2303E4,1.0703E4,1.352E3,2.501E3,7.652E3,1.512E3,8.569E3,5.288E3,3.07E2,1.1996E4,5.907E3,4.796E3,7.09E2,6.43E2,1.312E3,1.189E3,7.404E3,2.48E2,2.9E1,1.483E3,5.108E3,3.461E3,2.832E3,2.456E3,5.7E1,2.5E2,6.791E3,5.205E3,2.556E3,3.351E3,4.795E3,1E0,1E0,7.08E2,1.83E2,4.6E2,1.307E3,5E0,6.133E3,1.271E3,2E0,2.46E2,2.3E1,6E0,3.11E2,1.172E3,1.86E3,3.248E3,7.3E1,3.388E3,1.627E3,1.205E3,8.42E2,1.614E3],"tree_param":{"num_deleted":"0","num_feature":"16","num_nodes":"63","size_leaf_vector":"1"}},{"base_weights":[-1.3548679E-3,-3.0114336E0,2.9633623E1,-1.2908832E1,9.001479E0,-1.7035995E1,1.0694497E1,2.2153888E0,1.37609E1,-2.3417665E1,-1.1200735E1,-1.0400604E1,2.37907E1,4.1307564E0,-1.3438735E1,1.0095106E1,1.7930407E1,-2.4507338E1,5.6154666E0,-1.4634018E1,-5.9355125E0,2.2697261E-1,-2.55172E1,2.3140106E1,7.3468456E0,-3.0194462E1,4.596717E0,7.917577E0,-1.6049047E1,7.282386E0,1.1330251E1,1.5779955E1,1.879042E1,-8.155966E0,-6.6736255E0,1.891899E0,-5.226207E0,-4.692331E0,-3.6723597E0,-2.6435516E0,-1.3775123E0,-1.8425617E1,1.08396724E-1,-8.293816E0,-7.383647E0,6.9555254E0,4.480205E0,-3.7087734E1,8.4420145E-1,1.3049465E-1,2.699206E0,1.0564687E0,3.5621727E0,-7.077101E0,-1.7385269E0,4.468134E0,2.0164652E0,3.4748578E0,-8.608438E0,4.7628846E0,-2.247792E0,5.427697E0,5.895067E0],"categories":[],"categories_nodes":[],"categories_segments":[],"categories_sizes":[],"default_left":[0,0,0,0,0,0,0,0,0,0,0,0,0,0,0,0,0,0,0,0,0,0,0,0,0,0,0,0,0,0,0,0,0,0,0,0,0,0,0,0,0,0,0,0,0,0,0,0,0,0,0,0,0,0,0,0,0,0,0,0,0,0,0],"id":2,"left_children":[1,3,-1,5,7,9,11,13,15,17,19,21,23,25,27,29,31,33,35,37,39,41,43,45,-1,47,49,51,53,55,57,59,61,-1,-1,-1,-1,-1,-1,-1,-1,-1,-1,-1,-1,-1,-1,-1,-1,-1,-1,-1,-1,-1,-1,-1,-1,-1,-1,-1,-1,-1,-1],"loss_changes":[1.528336E7,5.9307965E6,0E0,2.6643795E6,7.2773725E5,8.666175E5,1.1249254E6,2.786013E5,2.022475E5,3.518735E5,2.197655E5,2.5062416E5,5.75375E2,1.3253883E5,5.6598438E4,2.441E4,1.11605E4,6.43365E4,6.523537E3,1.7546875E4,1.8520328E4,7.616866E3,5.60375E2,1.40625E2,0E0,3.4267462E5,1.4958717E5,1.888707E3,6.9690516E4,9.09475E3,4.9844312E4,4.1003125E3,2.2975E3,0E0,0E0,0E0,0E0,0E0,0E0,0E0,0E0,0E0,0E0,0E0,0E0,0E0,0E0,0E0,0E0,0E0,0E0,0E0,0E0,0E0,0E0,0E0,0E0,0E0,0E0,0E0,0E0,0E0,0E0],"parents":[2147483647,0,0,1,1,3,3,4,4,5,5,6,6,7,7,8,8,9,9,10,10,11,11,12,12,13,13,14,14,15,15,16,16,17,17,18,18,19,19,20,20,21,21,22,22,23,23,25,25,26,26,27,27,28,28,29,29,30,30,31,31,32,32],"right_children":[2,4,-1,6,8,10,12,14,16,18,20,22,24,26,28,30,32,34,36,38,40,42,44,46,-1,48,50,52,54,56,58,60,62,-1,-1,-1,-1,-1,-1,-1,-1,-1,-1,-1,-1,-1,-1,-1,-1,-1,-1,-1,-1,-1,-1,-1,-1,-1,-1,-1,-1,-1,-1],"split_conditions":[2.9E1,5.03E0,2.9633623E1,9.2561406E-1,3.877579E1,1.5E1,1.1E1,1.2871428E2,3.796E1,1.1038928E2,2.2E1,1.1957667E2,1.9E1,6.9814286E0,9E0,3.765E1,3.808E1,9E0,9E0,1.9E1,2.4E1,7.2160715E-1,8E0,7.335714E-1,7.3468456E0,1.18997116E2,2.4E1,4E0,1.9E1,1.4192281E1,9E0,4.0575966E1,3.821E1,-8.155966E0,-6.6736255E0,1.891899E0,-5.226207E0,-4.692331E0,-3.6723597E0,-2.6435516E0,-1.3775123E0,-1.8425617E1,1.08396724E-1,-8.293816E0,-7.383647E0,6.9555254E0,4.480205E0,-3.7087734E1,8.4420145E-1,1.3049465E-1,2.699206E0,1.0564687E0,3.5621727E0,-7.077101E0,-1.7385269E0,4.468134E0,2.0164652E0,3.4748578E0,-8.608438E0,4.7628846E0,-2.247792E0,5.427697E0,5.895067E0],"split_indices":[15,6,0,4,12,15,15,2,7,2,15,0,15,11,15,7,7,15,15,15,15,1,15,1,0,0,15,15,15,11,15,12,7,0,0,0,0,0,0,0,0,0,0,0,0,0,0,0,0,0,0,0,0,0,0,0,0,0,0,0,0,0,0],"split_type":[0,0,0,0,0,0,0,0,0,0,0,0,0,0,0,0,0,0,0,0,0,0,0,0,0,0,0,0,0,0,0,0,0,0,0,0,0,0,0,0,0,0,0,0,0,0,0,0,0,0,0,0,0,0,0,0,0,0,0,0,0,0,0],"sum_hessian":[5.1399E4,4.988E4,1.519E3,2.7348E4,2.2532E4,2.3278E4,4.07E3,9.289E3,1.3243E4,1.1117E4,1.2161E4,1.559E3,2.511E3,8.277E3,1.012E3,7.049E3,6.194E3,1.0715E4,4.02E2,7.36E3,4.801E3,9.16E2,6.43E2,1.318E3,1.193E3,1.1E2,8.167E3,1.1E2,9.02E2,2.153E3,4.896E3,1.775E3,4.419E3,4.9E3,5.815E3,3.91E2,1.1E1,5.176E3,2.184E3,1.527E3,3.274E3,1E0,9.15E2,1.83E2,4.6E2,1.309E3,9E0,2.8E1,8.2E1,4.198E3,3.969E3,5.3E1,5.7E1,5.19E2,3.83E2,1.46E2,2.007E3,4.866E3,3E1,1.768E3,7E0,2.451E3,1.968E3],"tree_param":{"num_deleted":"0","num_feature":"16","num_nodes":"63","size_leaf_vector":"1"}},{"base_weights":[-1.6968771E-3,-2.1093683E0,2.074938E1,-8.948708E0,6.436277E0,-1.1852453E1,7.1837277E0,4.1178064E0,1.334062E1,-9.103596E0,-1.8618092E1,-6.7415094E0,1.6665535E1,5.961843E0,-2.4388862E0,1.2875263E1,7.937878E0,-1.1425006E1,-4.7278295E0,-2.016036E1,-1.6992826E1,9.14774E-2,-1.788855E1,1.6935472E1,1.5597343E1,1.385132E0,7.1844316E0,1.6224363E0,-8.162853E0,-5.207996E0,1.2997942E1,1.4060344E0,-3.6995213E0,-7.553846E-1,-1.8575696E0,-6.2934504E0,-5.672889E0,-5.170512E0,-4.7787795E0,-1.5661776E1,5.6963935E-2,-5.6369576E0,-4.9565744E0,5.070282E0,7.6715903E0,3.2021263E0,4.698952E0,1.385911E0,-2.0290322E0,2.4698317E0,1.1480377E0,-2.0928255E-1,2.1289947E0,-2.192017E1,-2.0803192E0,-3.2006487E-1,-1.1731638E1,3.6404662E0,4.099982E0],"categories":[],"categories_nodes":[],"categories_segments":[],"categories_sizes":[],"default_left":[0,0,0,0,0,0,0,0,0,0,0,0,0,0,0,0,0,0,0,0,0,0,0,0,0,0,0,0,0,0,0,0,0,0,0,0,0,0,0,0,0,0,0,0,0,0,0,0,0,0,0,0,0,0,0,0,0,0,0],"id":3,"left_children":[1,3,-1,5,7,9,11,13,15,17,19,21,23,25,27,29,-1,31,33,35,37,39,41,43,45,47,49,51,53,55,57,-1,-1,-1,-1,-1,-1,-1,-1,-1,-1,-1,-1,-1,-1,-1,-1,-1,-1,-1,-1,-1,-1,-1,-1,-1,-1,-1,-1],"loss_changes":[7.4932295E6,2.915431E6,0E0,1.2980052E6,3.549118E5,4.36525E5,5.582303E5,2.0074566E5,3.3688688E4,1.695735E5,1.66595E4,1.30476695E5,4.61E2,7.249572E4,8.47481E4,1.2013875E4,0E0,1.5944275E5,1.8717484E4,3.15775E3,5.778125E2,5.4803096E3,4.9145312E2,1.63125E2,1.3515625E0,7.2065305E4,3.5963438E4,2.709494E4,1.2012809E5,5.1520884E3,2.921E3,0E0,0E0,0E0,0E0,0E0,0E0,0E0,0E0,0E0,0E0,0E0,0E0,0E0,0E0,0E0,0E0,0E0,0E0,0E0,0E0,0E0,0E0,0E0,0E0,0E0,0E0,0E0,0E0],"parents":[2147483647,0,0,1,1,3,3,4,4,5,5,6,6,7,7,8,8,9,9,10,10,11,11,12,12,13,13,14,14,15,15,17,17,18,18,19,19,20,20,21,21,22,22,23,23,24,24,25,25,26,26,27,27,28,28,29,29,30,30],"right_children":[2,4,-1,6,8,10,12,14,16,18,20,22,24,26,28,30,-1,32,34,36,38,40,42,44,46,48,50,52,54,56,58,-1,-1,-1,-1,-1,-1,-1,-1,-1,-1,-1,-1,-1,-1,-1,-1,-1,-1,-1,-1,-1,-1,-1,-1,-1,-1,-1,-1],"split_conditions":[2.9E1,5.0504165E0,2.074938E1,9.2157894E-1,9.4210523E-1,1.2002105E2,1.1E1,9.0732145E-1,1.5E1,2E1,8E0,1.1957667E2,3.587E1,1.1147857E2,1E1,1.1E1,7.937878E0,9E0,3.705E1,7E0,1E1,7.2160715E-1,1E1,4.9998217E0,1.3E1,1E1,6.3648334E0,1.1957667E2,6.9814286E0,1.1922083E2,3.816E1,1.4060344E0,-3.6995213E0,-7.553846E-1,-1.8575696E0,-6.2934504E0,-5.672889E0,-5.170512E0,-4.7787795E0,-1.5661776E1,5.6963935E-2,-5.6369576E0,-4.9565744E0,5.070282E0,7.6715903E0,3.2021263E0,4.698952E0,1.385911E0,-2.0290322E0,2.4698317E0,1.1480377E0,-2.0928255E-1,2.1289947E0,-2.192017E1,-2.0803192E0,-3.2006487E-1,-1.1731638E1,3.6404662E0,4.099982E0],"split_indices":[15,6,0,4,4,0,15,4,15,15,15,0,7,2,15,15,0,15,7,15,15,1,15,6,15,15,6,0,11,0,7,0,0,0,0,0,0,0,0,0,0,0,0,0,0,0,0,0,0,0,0,0,0,0,0,0,0,0,0],"split_type":[0,0,0,0,0,0,0,0,0,0,0,0,0,0,0,0,0,0,0,0,0,0,0,0,0,0,0,0,0,0,0,0,0,0,0,0,0,0,0,0,0,0,0,0,0,0,0,0,0,0,0,0,0,0,0,0,0,0,0],"sum_hessian":[5.1399E4,4.988E4,1.519E3,2.7706E4,2.2174E4,2.348E4,4.226E3,1.6601E4,5.573E3,1.6698E4,6.782E3,1.712E3,2.514E3,1.2957E4,3.644E3,5.384E3,1.89E2,1.0909E4,5.789E3,3.474E3,3.308E3,1.062E3,6.5E2,1.995E3,5.19E2,2.732E3,1.0225E4,2.132E3,1.512E3,3.6E1,5.348E3,5.81E2,1.0328E4,2.308E3,3.481E3,2.091E3,1.383E3,2.682E3,6.26E2,1E0,1.061E3,3.84E2,2.66E2,1.99E3,5E0,9E0,5.1E2,1.956E3,7.76E2,7.791E3,2.434E3,1.498E3,6.34E2,2.7E1,1.485E3,3.3E1,3E0,2.343E3,3.005E3],"tree_param":{"num_deleted":"0","num_feature":"16","num_nodes":"59","size_leaf_vector":"1"}},{"base_weights":[-1.7140837E-3,-1.4775158E0,1.4528659E1,-6.2056947E0,4.595885E0,-8.239056E0,4.8821573E0,1.002274E0,6.910375E0,-1.2779664E1,-6.1189957E0,-4.477647E0,1.1682618E1,2.6501453E0,-6.3710885E0,8.003335E0,3.7516935E0,-1.2919818E1,5.530299E0,-7.4563622E0,-2.7062054E0,-2.685583E-2,-1.2538255E1,1.1437325E1,1.2452754E1,2.2197714E0,2.0014948E1,2.313827E1,-7.4830074E0,6.6589103E0,9.170264E0,3.516106E1,3.6509006E0,-3.869132E0,-2.7437635E1,5.8578773E0,1.3235582E0,9.574247E-1,-2.4400992E0,-9.7550255E-1,-3.5142913E-2,-1.331251E1,1.4519131E-2,-4.324137E0,-3.6127818E0,3.4205735E0,5.545446E0,3.7568052E0,2.4000528E0,3.031791E0,4.5602968E-1,6.735852E0,1.722892E0,1.987352E1,4.102692E0,-2.0551296E1,-1.8591589E0,2.015153E0,-6.20605E0,4.8210955E0,2.7207234E0,1.3983152E0,3.8561374E-1],"categories":[],"categories_nodes":[],"categories_segments":[],"categories_sizes":[],"default_left":[0,0,0,0,0,0,0,0,0,0,0,0,0,0,0,0,0,0,0,0,0,0,0,0,0,0,0,0,0,0,0,0,0,0,0,0,0,0,0,0,0,0,0,0,0,0,0,0,0,0,0,0,0,0,0,0,0,0,0,0,0,0,0],"id":4,"left_children":[1,3,-1,5,7,9,11,13,15,17,19,21,23,25,27,29,31,33,35,37,39,41,43,45,47,49,51,53,55,57,59,-1,61,-1,-1,-1,-1,-1,-1,-1,-1,-1,-1,-1,-1,-1,-1,-1,-1,-1,-1,-1,-1,-1,-1,-1,-1,-1,-1,-1,-1,-1,-1],"loss_changes":[3.673831E6,1.4324174E6,0E0,6.3237675E5,1.8160303E5,2.2807625E5,2.7674312E5,1.0396314E5,4.5820125E4,1.94285E4,7.3732E4,6.565289E4,3.3325E2,5.221676E4,5.1458336E4,1.5417125E4,3.863457E4,1.2173625E4,8.217628E2,8.374725E4,6.426793E3,3.940197E3,4.3159375E2,2.6892188E2,8.5703125E1,3.7643312E4,5.7511562E3,2.2344564E4,1.17817555E5,7.4491094E3,3.54E3,0E0,8.151867E3,0E0,0E0,0E0,0E0,0E0,0E0,0E0,0E0,0E0,0E0,0E0,0E0,0E0,0E0,0E0,0E0,0E0,0E0,0E0,0E0,0E0,0E0,0E0,0E0,0E0,0E0,0E0,0E0,0E0,0E0],"parents":[2147483647,0,0,1,1,3,3,4,4,5,5,6,6,7,7,8,8,9,9,10,10,11,11,12,12,13,13,14,14,15,15,16,16,17,17,18,18,19,19,20,20,21,21,22,22,23,23,24,24,25,25,26,26,27,27,28,28,29,29,30,30,32,32],"right_children":[2,4,-1,6,8,10,12,14,16,18,20,22,24,26,28,30,32,34,36,38,40,42,44,46,48,50,52,54,56,58,60,-1,62,-1,-1,-1,-1,-1,-1,-1,-1,-1,-1,-1,-1,-1,-1,-1,-1,-1,-1,-1,-1,-1,-1,-1,-1,-1,-1,-1,-1,-1,-1],"split_conditions":[2.9E1,5.067917E0,1.4528659E1,9.2157894E-1,3.784E1,3.5934822E1,1.1E1,1.1336429E2,1.05E0,8.77193E-2,2.3E1,1.1957667E2,3.4E1,2.7E1,3.432E1,9.126667E-1,5.540179E0,8.288571E0,3E0,9E0,2.6E1,7.2160715E-1,7E0,4.9998217E0,3.797E1,3.5658974E1,3.779E1,6.9814286E0,3.00215E1,3.9068058E1,3.8728928E1,3.516106E1,3.847923E1,-3.869132E0,-2.7437635E1,5.8578773E0,1.3235582E0,9.574247E-1,-2.4400992E0,-9.7550255E-1,-3.5142913E-2,-1.331251E1,1.4519131E-2,-4.324137E0,-3.6127818E0,3.4205735E0,5.545446E0,3.7568052E0,2.4000528E0,3.031791E0,4.5602968E-1,6.735852E0,1.722892E0,1.987352E1,4.102692E0,-2.0551296E1,-1.8591589E0,2.015153E0,-6.20605E0,4.8210955E0,2.7207234E0,1.3983152E0,3.8561374E-1],"split_indices":[15,6,0,4,7,12,15,2,1,9,15,0,10,15,7,4,13,13,14,15,15,1,15,6,7,7,7,11,12,7,12,0,7,0,0,0,0,0,0,0,0,0,0,0,0,0,0,0,0,0,0,0,0,0,0,0,0,0,0,0,0,0,0],"split_type":[0,0,0,0,0,0,0,0,0,0,0,0,0,0,0,0,0,0,0,0,0,0,0,0,0,0,0,0,0,0,0,0,0,0,0,0,0,0,0,0,0,0,0,0,0,0,0,0,0,0,0,0,0,0,0,0,0,0,0,0,0,0,0],"sum_hessian":[5.1399E4,4.988E4,1.519E3,2.8046E4,2.1834E4,2.37E4,4.346E3,8.554E3,1.328E4,7.542E3,1.6158E4,1.829E3,2.517E3,6.992E3,1.562E3,9.865E3,3.415E3,7.485E3,5.7E1,1.1608E4,4.55E3,1.179E3,6.5E2,1.921E3,5.96E2,6.824E3,1.68E2,5.6E1,1.506E3,4.587E3,5.278E3,2E0,3.413E3,7.484E3,1E0,3E0,5.4E1,6.94E2,1.0914E4,3.758E3,7.92E2,1E0,1.178E3,1.3E2,5.2E2,1.914E3,7E0,5.85E2,1.1E1,5.55E2,6.269E3,1.43E2,2.5E1,9E0,4.7E1,3E1,1.476E3,4.578E3,9E0,7.4E1,5.204E3,2.391E3,1.022E3],"tree_param":{"num_deleted":"0","num_feature":"16","num_nodes":"63","size_leaf_vector":"1"}},{"base_weights":[-5.086258E-4,-1.0338402E0,1.0172928E1,-4.283999E0,3.3100548E0,-5.7012506E0,3.2863364E0,2.656006E-1,4.9194593E0,-7.7838964E0,-3.2377563E0,-2.9866347E0,8.189674E0,2.644259E0,-6.846102E0,3.6263156E0,6.2091246E0,-8.601263E0,1.7215787E0,-3.0260906E0,-1.0559542E1,-6.565384E-4,-8.737407E0,8.149459E0,1.1886816E1,-1.8725085E0,4.007911E0,-9.55276E0,1.5296631E1,3.6725273E0,-1.6705296E1,5.759749E0,6.7458572E0,-2.7863708E0,-1.8421035E0,6.756379E-1,-1.68055E0,-1.1275129E0,-4.0827E-1,-3.4478195E0,1.5036017E-1,3.6069162E-2,-2.5871694E0,-9.48958E0,-2.5764382E0,2.2937326E0,2.5266972E0,6.1913743E0,1.7023362E0,-1.3556951E1,-1.9743761E-1,1.9746758E0,6.8033683E-1,-3.6684177E0,1.0074316E0,8.221014E0,4.3163295E0,6.04117E-1,1.2229264E0,-6.645808E0,1.5525216E0,1.737794E0,-2.6354482E0,1.9468448E0,2.2478807E0],"categories":[],"categories_nodes":[],"categories_segments":[],"categories_sizes":[],"default_left":[0,0,0,0,0,0,0,0,0,0,0,0,0,0,0,0,0,0,0,0,0,0,0,0,0,0,0,0,0,0,0,0,0,0,0,0,0,0,0,0,0,0,0,0,0,0,0,0,0,0,0,0,0,0,0,0,0,0,0,0,0,0,0,0,0],"id":5,"left_children":[1,3,-1,5,7,9,11,13,15,17,19,21,23,25,27,29,31,33,35,37,39,41,43,45,47,49,51,53,55,57,59,61,63,-1,-1,-1,-1,-1,-1,-1,-1,-1,-1,-1,-1,-1,-1,-1,-1,-1,-1,-1,-1,-1,-1,-1,-1,-1,-1,-1,-1,-1,-1,-1,-1],"loss_changes":[1.8011194E6,7.0425156E5,0E0,3.0615128E5,1.04603625E5,1.2328319E5,1.3843769E5,1.2492816E5,2.3268938E4,1.0119656E5,1.7034125E4,3.3914062E4,2.7870312E2,3.409308E4,1.1108175E5,6.615711E3,1.6473438E3,2.0206562E4,4.0223662E3,1.3047305E4,3.1951875E3,1.3572491E3,2.0352695E3,2.7946875E2,1.2420161E3,6.751358E4,1.902814E4,5.703275E4,1.8284141E3,4.6555312E3,2.0216987E3,1.8748516E3,5.604375E2,0E0,0E0,0E0,0E0,0E0,0E0,0E0,0E0,0E0,0E0,0E0,0E0,0E0,0E0,0E0,0E0,0E0,0E0,0E0,0E0,0E0,0E0,0E0,0E0,0E0,0E0,0E0,0E0,0E0,0E0,0E0,0E0],"parents":[2147483647,0,0,1,1,3,3,4,4,5,5,6,6,7,7,8,8,9,9,10,10,11,11,12,12,13,13,14,14,15,15,16,16,17,17,18,18,19,19,20,20,21,21,22,22,23,23,24,24,25,25,26,26,27,27,28,28,29,29,30,30,31,31,32,32],"right_children":[2,4,-1,6,8,10,12,14,16,18,20,22,24,26,28,30,32,34,36,38,40,42,44,46,48,50,52,54,56,58,60,62,64,-1,-1,-1,-1,-1,-1,-1,-1,-1,-1,-1,-1,-1,-1,-1,-1,-1,-1,-1,-1,-1,-1,-1,-1,-1,-1,-1,-1,-1,-1,-1,-1],"split_conditions":[2.9E1,5.090893E0,1.0172928E1,9.2157894E-1,3.8635086E1,1.6E1,1.1E1,1.4241964E1,3.794E1,1.1038928E2,4.9998217E0,9.3016666E-1,4.9998217E0,7.3551664E0,9.405357E-1,3.9705265E1,3.814E1,1.4E1,1E1,2.4E1,2.3E1,1.1957667E2,1.19189255E2,3.5060577E1,7.4875E-1,1.18997116E2,3.811E1,2.3E1,9.457143E-1,3E0,1.1E1,4.0575966E1,3.825E1,-2.7863708E0,-1.8421035E0,6.756379E-1,-1.68055E0,-1.1275129E0,-4.0827E-1,-3.4478195E0,1.5036017E-1,3.6069162E-2,-2.5871694E0,-9.48958E0,-2.5764382E0,2.2937326E0,2.5266972E0,6.1913743E0,1.7023362E0,-1.3556951E1,-1.9743761E-1,1.9746758E0,6.8033683E-1,-3.6684177E0,1.0074316E0,8.221014E0,4.3163295E0,6.04117E-1,1.2229264E0,-6.645808E0,1.5525216E0,1.737794E0,-2.6354482E0,1.9468448E0,2.2478807E0],"split_indices":[15,6,0,4,12,15,15,11,7,2,6,4,6,11,4,12,7,15,15,15,15,0,0,12,1,0,7,15,4,15,15,12,7,0,0,0,0,0,0,0,0,0,0,0,0,0,0,0,0,0,0,0,0,0,0,0,0,0,0,0,0,0,0,0,0],"split_type":[0,0,0,0,0,0,0,0,0,0,0,0,0,0,0,0,0,0,0,0,0,0,0,0,0,0,0,0,0,0,0,0,0,0,0,0,0,0,0,0,0,0,0,0,0,0,0,0,0,0,0,0,0,0,0,0,0,0,0,0,0,0,0,0,0],"sum_hessian":[5.1399E4,4.988E4,1.519E3,2.8532E4,2.1348E4,2.4033E4,4.499E3,7.383E3,1.3965E4,1.3022E4,1.1011E4,1.974E3,2.525E3,5.533E3,1.85E3,6.975E3,6.99E3,1.1991E4,1.031E3,1.0703E4,3.08E2,1.3E3,6.74E2,2.501E3,2.4E1,1.283E3,4.25E3,1.649E3,2.01E2,6.96E3,1.5E1,3.811E3,3.179E3,9.373E3,2.618E3,9.62E2,6.9E1,7.433E3,3.27E3,2.84E2,2.4E1,1.283E3,1.7E1,3E0,6.71E2,8.89E2,1.612E3,9E0,1.5E1,3.4E1,1.249E3,1.713E3,2.537E3,1.366E3,2.83E2,1.2E1,1.89E2,1.364E3,5.596E3,1.2E1,3E0,3.803E3,8E0,2.374E3,8.05E2],"tree_param":{"num_deleted":"0","num_feature":"16","num_nodes":"65","size_leaf_vector":"1"}},{"base_weights":[-4.219754E-4,-7.239595E-1,2.374351E1,-2.999231E0,2.3169813E0,6.946439E0,7.3420625E0,-4.8307576E0,-4.688754E-2,4.115148E-2,3.464434E0,4.136828E-1,-5.5869517E0,5.7413793E0,-1.7919806E0,1.8716041E0,-5.9647717E0,2.2984488E0,4.130844E0,-9.892196E0,4.4358888E-1,-6.465769E0,-3.9407718E0,5.804942E0,-2.326075E1,-1.658278E0,-9.031802E0,-1.3214722E0,2.846631E0,-8.420559E0,1.0716632E1,6.587179E0,2.1189277E0,3.5352952E0,4.456651E0,3.9536783E-1,-7.39468E-2,-2.403393E0,-1.807584E0,2.0939145E0,-1.2583117E0,1.7199595E0,6.9933E0,-5.947771E-1,-5.0953466E-2,-2.8748055E0,-3.2980168E-1,-9.606068E0,-1.3825496E-1,1.8861386E0,5.7890683E-1,-1.4118099E0,-4.800791E0,3.2871482E0,-6.1134686E0,2.1004913E0,-2.539232E0,6.9245994E-1,-1.0713886E0,1.0898727E0,-5.226144E0,1.2801948E0,1.511314E0],"categories":[],"categories_nodes":[],"categories_segments":[],"categories_sizes":[],"default_left":[0,0,0,0,0,0,0,0,0,0,0,0,0,0,0,0,0,0,0,0,0,0,0,0,0,0,0,0,0,0,0,0,0,0,0,0,0,0,0,0,0,0,0,0,0,0,0,0,0,0,0,0,0,0,0,0,0,0,0,0,0,0,0],"id":6,"left_children":[1,3,5,7,9,-1,-1,11,13,15,17,19,21,23,25,27,29,31,33,-1,35,37,39,41,-1,43,45,47,49,51,53,55,57,59,61,-1,-1,-1,-1,-1,-1,-1,-1,-1,-1,-1,-1,-1,-1,-1,-1,-1,-1,-1,-1,-1,-1,-1,-1,-1,-1,-1,-1],"loss_changes":[8.8305E5,3.451319E5,8.6625E1,1.5428616E5,5.575079E4,0E0,0E0,6.983631E4,1.1036442E5,7.8692055E4,1.1018797E4,2.231286E3,2.2239094E4,1.3847445E4,8.111242E3,1.708352E4,6.8585336E4,3.9618965E3,1.736375E3,0E0,1.339132E3,6.7814375E3,1.4870703E4,3.0438984E3,0E0,3.9791816E3,6.536836E2,3.3908566E4,1.3247223E4,4.098754E4,1.8313164E3,1.3505547E3,5.34801E3,6.6050117E3,6.2022656E2,0E0,0E0,0E0,0E0,0E0,0E0,0E0,0E0,0E0,0E0,0E0,0E0,0E0,0E0,0E0,0E0,0E0,0E0,0E0,0E0,0E0,0E0,0E0,0E0,0E0,0E0,0E0,0E0],"parents":[2147483647,0,0,1,1,2,2,3,3,4,4,7,7,8,8,9,9,10,10,11,11,12,12,13,13,14,14,15,15,16,16,17,17,18,18,20,20,21,21,22,22,23,23,25,25,26,26,27,27,28,28,29,29,30,30,31,31,32,32,33,33,34,34],"right_children":[2,4,6,8,10,-1,-1,12,14,16,18,20,22,24,26,28,30,32,34,-1,36,38,40,42,-1,44,46,48,50,52,54,56,58,60,62,-1,-1,-1,-1,-1,-1,-1,-1,-1,-1,-1,-1,-1,-1,-1,-1,-1,-1,-1,-1,-1,-1,-1,-1,-1,-1,-1,-1],"split_conditions":[2.9E1,5.090893E0,3E1,1.8E1,3.854526E1,6.946439E0,7.3420625E0,5E0,3.5625088E1,1.4228393E1,3.786E1,7.2160715E-1,4.604643E0,7.4710712E0,5.03E0,7.3551664E0,9.405357E-1,1.4192281E1,3.798E1,-9.892196E0,9.276786E-1,7E0,1E1,1.0699091E0,-2.326075E1,3.8193214E1,3.791018E1,1.18997116E2,3.78E1,1.19875E2,2.7838572E1,3.9705265E1,7E0,1E1,3.823E1,3.9536783E-1,-7.39468E-2,-2.403393E0,-1.807584E0,2.0939145E0,-1.2583117E0,1.7199595E0,6.9933E0,-5.947771E-1,-5.0953466E-2,-2.8748055E0,-3.2980168E-1,-9.606068E0,-1.3825496E-1,1.8861386E0,5.7890683E-1,-1.4118099E0,-4.800791E0,3.2871482E0,-6.1134686E0,2.1004913E0,-2.539232E0,6.9245994E-1,-1.0713886E0,1.0898727E0,-5.226144E0,1.2801948E0,1.511314E0],"split_indices":[15,6,15,15,12,0,0,15,12,11,7,1,6,13,6,11,4,11,7,0,4,15,15,1,0,12,12,0,7,0,5,12,15,15,7,0,0,0,0,0,0,0,0,0,0,0,0,0,0,0,0,0,0,0,0,0,0,0,0,0,0,0,0],"split_type":[0,0,0,0,0,0,0,0,0,0,0,0,0,0,0,0,0,0,0,0,0,0,0,0,0,0,0,0,0,0,0,0,0,0,0,0,0,0,0,0,0,0,0,0,0,0,0,0,0,0,0,0,0,0,0,0,0,0,0,0,0,0,0],"sum_hessian":[5.1399E4,4.988E4,1.519E3,2.8532E4,2.1348E4,8.59E2,6.6E2,1.7608E4,1.0924E4,7.156E3,1.4192E4,2.219E3,1.5389E4,2.53E3,8.394E3,5.485E3,1.671E3,5.163E3,9.029E3,1E0,2.218E3,1.0031E4,5.358E3,2.529E3,1E0,8.243E3,1.51E2,1.283E3,4.202E3,1.457E3,2.14E2,2.06E2,4.957E3,3.197E3,5.832E3,9.78E2,1.24E3,2.221E3,7.81E3,1.21E2,5.237E3,2.52E3,9E0,6.768E3,1.475E3,1.41E2,1E1,3.4E1,1.249E3,8.83E2,3.319E3,9.79E2,4.78E2,2.13E2,1E0,2.01E2,5E0,4.798E3,1.59E2,3.183E3,1.4E1,4.405E3,1.427E3],"tree_param":{"num_deleted":"0","num_feature":"16","num_nodes":"63","size_leaf_vector":"1"}},{"base_weights":[-9.863186E-4,-5.0776994E-1,1.6629852E1,-2.0898814E0,1.635719E0,4.868803E0,5.1509666E0,-3.3500369E0,-4.3348983E-2,5.2715667E-2,2.4341307E0,2.8155226E-1,-3.902166E0,3.9978166E0,-1.2698511E0,-2.974536E0,2.1288202E0,1.8618928E0,3.0919766E0,3.2462358E-1,-1.0035306E1,-4.506972E0,-2.6769593E0,4.0511584E0,-1.9771637E1,-1.1661749E0,-6.4321394E0,-6.8140054E0,5.829835E-1,2.04538E0,5.1984184E1,1.8964562E0,-9.506244E0,2.8467588E0,3.325149E0,1.2322103E0,5.6205433E-2,-1.6826984E0,-1.2612323E0,1.3690641E0,-8.660518E-1,1.1995364E0,5.1051083E0,-4.097288E-1,4.015443E-2,-4.0621614E-1,-2.1134205E0,1.4990659E0,-2.8685236E0,-2.0920044E-1,2.473295E0,4.1079262E-1,1.6708543E0,5.0073433E0,2.8043356E1,1.4420468E0,5.447321E-1,-6.07237E-1,-6.9846616E0,8.600894E-1,-1.6713382E0,9.594463E-1,1.1164579E0],"categories":[],"categories_nodes":[],"categories_segments":[],"categories_sizes":[],"default_left":[0,0,0,0,0,0,0,0,0,0,0,0,0,0,0,0,0,0,0,0,0,0,0,0,0,0,0,0,0,0,0,0,0,0,0,0,0,0,0,0,0,0,0,0,0,0,0,0,0,0,0,0,0,0,0,0,0,0,0,0,0,0,0],"id":7,"left_children":[1,3,5,7,9,-1,-1,11,13,15,17,19,21,23,25,27,29,31,33,35,-1,37,39,41,-1,43,45,47,49,51,53,55,57,59,61,-1,-1,-1,-1,-1,-1,-1,-1,-1,-1,-1,-1,-1,-1,-1,-1,-1,-1,-1,-1,-1,-1,-1,-1,-1,-1,-1,-1],"loss_changes":[4.3321978E5,1.6916178E5,5.0125E1,7.401311E4,2.6772828E4,0E0,0E0,3.5615797E4,5.421925E4,4.464791E4,5.294953E3,3.4179268E3,1.1412859E4,9.764199E3,4.48395E3,3.9478445E4,1.742367E4,2.9779004E3,3.649922E2,1.2158695E3,0E0,3.4211875E3,7.760289E3,1.6717734E3,0E0,2.1350898E3,5.0374463E2,4.51578E4,1.4728974E4,1.0018211E4,8.6908125E3,1.7549746E3,2.3235623E3,5.60084E2,1.5678125E2,0E0,0E0,0E0,0E0,0E0,0E0,0E0,0E0,0E0,0E0,0E0,0E0,0E0,0E0,0E0,0E0,0E0,0E0,0E0,0E0,0E0,0E0,0E0,0E0,0E0,0E0,0E0,0E0],"parents":[2147483647,0,0,1,1,2,2,3,3,4,4,7,7,8,8,9,9,10,10,11,11,12,12,13,13,14,14,15,15,16,16,17,17,18,18,19,19,21,21,22,22,23,23,25,25,26,26,27,27,28,28,29,29,30,30,31,31,32,32,33,33,34,34],"right_children":[2,4,6,8,10,-1,-1,12,14,16,18,20,22,24,26,28,30,32,34,36,-1,38,40,42,-1,44,46,48,50,52,54,56,58,60,62,-1,-1,-1,-1,-1,-1,-1,-1,-1,-1,-1,-1,-1,-1,-1,-1,-1,-1,-1,-1,-1,-1,-1,-1,-1,-1,-1,-1],"split_conditions":[2.9E1,5.098214E0,4.129298E0,1.8E1,3.854526E1,4.868803E0,5.1509666E0,5E0,3.581769E1,2.3E1,3.795E1,9.373214E-1,4.62125E0,7.7553573E0,5.03E0,9.2561406E-1,2.898148E0,1.3333334E-1,3.813E1,4.67375E0,-1.0035306E1,7E0,1E1,1.0699091E0,-1.9771637E1,3.87E1,8.9660716E-1,1E1,1.8E1,1.15494804E2,1.19189255E2,1.4173166E1,1.2E1,4.0575966E1,3.825E1,1.2322103E0,5.6205433E-2,-1.6826984E0,-1.2612323E0,1.3690641E0,-8.660518E-1,1.1995364E0,5.1051083E0,-4.097288E-1,4.015443E-2,-4.0621614E-1,-2.1134205E0,1.4990659E0,-2.8685236E0,-2.0920044E-1,2.473295E0,4.1079262E-1,1.6708543E0,5.0073433E0,2.8043356E1,1.4420468E0,5.447321E-1,-6.07237E-1,-6.9846616E0,8.600894E-1,-1.6713382E0,9.594463E-1,1.1164579E0],"split_indices":[15,6,6,15,12,0,0,15,12,15,7,4,6,13,6,4,9,9,7,6,0,15,15,1,0,12,4,15,15,2,0,11,14,12,7,0,0,0,0,0,0,0,0,0,0,0,0,0,0,0,0,0,0,0,0,0,0,0,0,0,0,0,0],"split_type":[0,0,0,0,0,0,0,0,0,0,0,0,0,0,0,0,0,0,0,0,0,0,0,0,0,0,0,0,0,0,0,0,0,0,0,0,0,0,0,0,0,0,0,0,0,0,0,0,0,0,0,0,0,0,0,0,0,0,0,0,0,0,0],"sum_hessian":[5.1399E4,4.988E4,1.519E3,2.8698E4,2.1182E4,8.9E2,6.29E2,1.7761E4,1.0937E4,7.102E3,1.408E4,2.344E3,1.5417E4,2.546E3,8.391E3,2.889E3,4.213E3,7.532E3,6.548E3,2.342E3,2E0,1.032E4,5.097E3,2.545E3,1E0,8.227E3,1.64E2,1.389E3,1.5E3,4.207E3,6E0,7.51E3,2.2E1,3.198E3,3.35E3,8.1E1,2.261E3,2.221E3,8.099E3,1.43E2,4.954E3,2.536E3,9E0,7.132E3,1.095E3,1.8E1,1.46E2,2.62E2,1.127E3,1.286E3,2.14E2,3.531E3,6.76E2,4E0,2E0,2.01E2,7.309E3,1.5E1,7E0,3.191E3,7E0,2.544E3,8.06E2],"tree_param":{"num_deleted":"0","num_feature":"16","num_nodes":"63","size_leaf_vector":"1"}},{"base_weights":[-4.1440752E-4,-3.5535532E-1,1.1647486E1,-1.463875E0,1.1464982E0,3.4188383E0,3.6373074E0,-2.3456542E0,-3.1837337E-2,4.197141E-2,1.7035826E0,1.9336368E-1,-2.731674E0,2.8286827E0,-8.8584685E-1,-2.7405908E0,1.2951953E0,1.0486687E0,2.0709298E0,2.2779354E-1,-8.028245E0,-3.1275067E0,-1.6788526E0,2.7917895E0,9.714423E0,-8.726504E-1,-1.6805893E1,2.0942889E-1,-8.804357E0,1.2379586E0,4.1110455E1,1.1080642E0,-5.750302E0,4.8526483E0,1.9845393E0,1.4861317E0,4.6817444E-2,-1.7567956E0,-9.0573615E-1,9.453795E-1,-5.551435E-1,7.8649837E-1,9.8334026E-1,1.4296532E-1,3.7314394E0,-2.3185666E-1,-1.1221033E0,-2.7513388E-1,2.5779884E0,-4.223723E0,-1.5381774E0,-1.0605811E0,4.9948376E-1,3.8055818E0,2.2434685E1,1.109519E0,3.0295026E-1,-8.091142E0,-7.0146513E-1,2.4224417E0,1.2577554E0,4.0091816E-1,6.4450705E-1],"categories":[],"categories_nodes":[],"categories_segments":[],"categories_sizes":[],"default_left":[0,0,0,0,0,0,0,0,0,0,0,0,0,0,0,0,0,0,0,0,0,0,0,0,0,0,0,0,0,0,0,0,0,0,0,0,0,0,0,0,0,0,0,0,0,0,0,0,0,0,0,0,0,0,0,0,0,0,0,0,0,0,0],"id":8,"left_children":[1,3,5,7,9,-1,-1,11,13,15,17,19,21,23,25,27,29,31,33,35,-1,37,39,41,43,45,-1,47,49,51,53,55,57,59,61,-1,-1,-1,-1,-1,-1,-1,-1,-1,-1,-1,-1,-1,-1,-1,-1,-1,-1,-1,-1,-1,-1,-1,-1,-1,-1,-1,-1],"loss_changes":[2.1250798E5,8.3045266E4,4.403125E1,3.6239332E4,1.3034141E4,0E0,0E0,1.7409258E4,2.6723068E4,2.4772945E4,3.3854453E3,2.1823232E3,6.4200703E3,6.117793E2,6.080152E3,3.9463273E4,1.1111134E4,2.0505503E3,2.158004E3,7.935506E2,0E0,3.2956797E3,3.4999482E3,1.9836719E2,3.2116895E2,2.4076123E3,0E0,1.4033371E4,1.3931488E4,9.976311E3,5.751259E3,1.2733428E3,3.1227583E3,5.425752E2,9.261797E2,0E0,0E0,0E0,0E0,0E0,0E0,0E0,0E0,0E0,0E0,0E0,0E0,0E0,0E0,0E0,0E0,0E0,0E0,0E0,0E0,0E0,0E0,0E0,0E0,0E0,0E0,0E0,0E0],"parents":[2147483647,0,0,1,1,2,2,3,3,4,4,7,7,8,8,9,9,10,10,11,11,12,12,13,13,14,14,15,15,16,16,17,17,18,18,19,19,21,21,22,22,23,23,24,24,25,25,27,27,28,28,29,29,30,30,31,31,32,32,33,33,34,34],"right_children":[2,4,6,8,10,-1,-1,12,14,16,18,20,22,24,26,28,30,32,34,36,-1,38,40,42,44,46,-1,48,50,52,54,56,58,60,62,-1,-1,-1,-1,-1,-1,-1,-1,-1,-1,-1,-1,-1,-1,-1,-1,-1,-1,-1,-1,-1,-1,-1,-1,-1,-1,-1,-1],"split_conditions":[2.9E1,5.098214E0,4.713E1,1.8E1,3.854526E1,3.4188383E0,3.6373074E0,5E0,1.0727679E2,1.8E1,3.786E1,9.373214E-1,1.09292854E2,4.9998217E0,9.044464E0,1E1,2.898148E0,3.9614643E1,3.877579E1,8.94386E-1,-8.028245E0,8.940351E-1,1E1,2.665982E1,1.19189255E2,4.9998217E0,-1.6805893E1,6E0,3.737E1,5.504286E0,1.19189255E2,1.4151334E1,3.737E1,3.8635086E1,3.794E1,1.4861317E0,4.6817444E-2,-1.7567956E0,-9.0573615E-1,9.453795E-1,-5.551435E-1,7.8649837E-1,9.8334026E-1,1.4296532E-1,3.7314394E0,-2.3185666E-1,-1.1221033E0,-2.7513388E-1,2.5779884E0,-4.223723E0,-1.5381774E0,-1.0605811E0,4.9948376E-1,3.8055818E0,2.2434685E1,1.109519E0,3.0295026E-1,-8.091142E0,-7.0146513E-1,2.4224417E0,1.2577554E0,4.0091816E-1,6.4450705E-1],"split_indices":[15,6,12,15,12,0,0,15,2,15,7,4,2,6,13,15,9,12,12,4,0,4,15,5,0,6,0,15,7,6,0,11,7,12,7,0,0,0,0,0,0,0,0,0,0,0,0,0,0,0,0,0,0,0,0,0,0,0,0,0,0,0,0],"split_type":[0,0,0,0,0,0,0,0,0,0,0,0,0,0,0,0,0,0,0,0,0,0,0,0,0,0,0,0,0,0,0,0,0,0,0,0,0,0,0,0,0,0,0,0,0,0,0,0,0,0,0,0,0,0,0,0,0,0,0,0,0,0,0],"sum_hessian":[5.1399E4,4.988E4,1.519E3,2.8698E4,2.1182E4,1.011E3,5.08E2,1.7761E4,1.0937E4,7.102E3,1.408E4,2.344E3,1.5417E4,2.514E3,8.423E3,2.205E3,4.897E3,5.061E3,9.019E3,2.342E3,2E0,1.1203E4,4.214E3,2.502E3,1.2E1,8.422E3,1E0,1.484E3,7.21E2,4.891E3,6E0,5.018E3,4.3E1,2.7E2,8.749E3,3.4E1,2.308E3,4.26E2,1.0777E4,1.44E2,4.07E3,1.858E3,6.44E2,3E0,9E0,8.14E3,2.82E2,1.309E3,1.75E2,2.95E2,4.26E2,4.01E2,4.49E3,4E0,2E0,1.82E2,4.836E3,5E0,3.8E1,4.4E1,2.26E2,1.767E3,6.982E3],"tree_param":{"num_deleted":"0","num_feature":"16","num_nodes":"63","size_leaf_vector":"1"}},{"base_weights":[-1.855311E-4,-2.4878283E-1,8.157895E0,-1.0254554E0,8.034747E-1,2.403575E0,2.5922885E0,-1.6424539E0,-2.3429912E-2,-9.857079E0,8.3624774E-1,1.3258818E-1,-1.9123223E0,1.9669042E0,-6.305954E-1,-6.6161623E0,-4.3391957E0,4.364954E0,7.516934E-1,1.601132E-1,-6.4225955E0,-2.2777214E0,-1.210499E0,2.0049324E0,-1.4285008E1,-1.3326903E-1,-1.0502193E0,2.3900368E0,-8.013883E0,4.1955643E1,3.4219868E0,-1.5206555E1,8.0833447E-1,8.4166795E-2,-7.0782745E-1,-7.078156E-1,8.29718E-1,-3.2655495E-1,-3.7717402E0,5.9122616E-1,5.7146177E0,-8.339274E-2,3.5517398E-1,-4.726186E-1,-1.5079212E-1,-3.1189606E0,-1.3797605E0,-3.2435284E0,1.4320671E1,7.301845E-1,3.1859882E0,-9.477592E0,-1.4706736E0,1.9978721E-1,1.0389136E0],"categories":[],"categories_nodes":[],"categories_segments":[],"categories_sizes":[],"default_left":[0,0,0,0,0,0,0,0,0,0,0,0,0,0,0,0,0,0,0,0,0,0,0,0,0,0,0,0,0,0,0,0,0,0,0,0,0,0,0,0,0,0,0,0,0,0,0,0,0,0,0,0,0,0,0],"id":9,"left_children":[1,3,5,7,9,-1,-1,11,13,15,17,19,21,23,25,27,-1,29,31,33,-1,35,37,39,-1,41,43,-1,45,47,49,51,53,-1,-1,-1,-1,-1,-1,-1,-1,-1,-1,-1,-1,-1,-1,-1,-1,-1,-1,-1,-1,-1,-1],"loss_changes":[1.0424518E5,4.0766543E4,3.7960938E1,1.7743066E4,7.409118E3,0E0,0E0,8.508742E3,1.3219398E4,8.747925E2,6.2979395E3,1.3938326E3,3.951121E3,4.9168945E3,1.7490999E3,8.791604E2,0E0,1.7367145E4,1.8655975E4,7.1166895E2,0E0,4.182035E3,7.305577E3,1.451415E3,0E0,7.3168115E2,1.3065259E3,0E0,2.5321582E2,4.176006E3,3.409188E3,1.217048E4,7.766492E3,0E0,0E0,0E0,0E0,0E0,0E0,0E0,0E0,0E0,0E0,0E0,0E0,0E0,0E0,0E0,0E0,0E0,0E0,0E0,0E0,0E0,0E0],"parents":[2147483647,0,0,1,1,2,2,3,3,4,4,7,7,8,8,9,9,10,10,11,11,12,12,13,13,14,14,15,15,17,17,18,18,19,19,21,21,22,22,23,23,25,25,26,26,28,28,29,29,30,30,31,31,32,32],"right_children":[2,4,6,8,10,-1,-1,12,14,16,18,20,22,24,26,28,-1,30,32,34,-1,36,38,40,-1,42,44,-1,46,48,50,52,54,-1,-1,-1,-1,-1,-1,-1,-1,-1,-1,-1,-1,-1,-1,-1,-1,-1,-1,-1,-1,-1,-1],"split_conditions":[2.9E1,5.098214E0,4.7600666E1,1.8E1,1.9928572E1,2.403575E0,2.5922885E0,5E0,3.5934822E1,7.3551664E0,3.515E1,9.373214E-1,1.4E1,7.7553573E0,3.739E1,1.18997116E2,-4.3391957E0,6.9814286E0,6.9814286E0,9.2974573E-1,-6.4225955E0,2.7175438E1,4.9998217E0,5.2093987E1,-1.4285008E1,3.901875E1,1E1,2.3900368E0,1.1904904E2,1.18997116E2,1.08421425E2,3.547661E1,2.7E1,8.4166795E-2,-7.0782745E-1,-7.078156E-1,8.29718E-1,-3.2655495E-1,-3.7717402E0,5.9122616E-1,5.7146177E0,-8.339274E-2,3.5517398E-1,-4.726186E-1,-1.5079212E-1,-3.1189606E0,-1.3797605E0,-3.2435284E0,1.4320671E1,7.301845E-1,3.1859882E0,-9.477592E0,-1.4706736E0,1.9978721E-1,1.0389136E0],"split_indices":[15,6,12,15,10,0,0,15,12,11,7,4,15,13,7,0,0,11,11,4,0,8,6,5,0,12,14,0,0,0,2,7,15,0,0,0,0,0,0,0,0,0,0,0,0,0,0,0,0,0,0,0,0,0,0],"split_type":[0,0,0,0,0,0,0,0,0,0,0,0,0,0,0,0,0,0,0,0,0,0,0,0,0,0,0,0,0,0,0,0,0,0,0,0,0,0,0,0,0,0,0,0,0,0,0,0,0,0,0,0,0,0,0],"sum_hessian":[5.1399E4,4.988E4,1.519E3,2.8698E4,2.1182E4,1.18E3,3.39E2,1.7761E4,1.0937E4,6.4E1,2.1118E4,2.344E3,1.5417E4,2.556E3,8.381E3,3.9E1,2.5E1,4.93E2,2.0625E4,2.342E3,2E0,1.0137E4,5.28E3,2.555E3,1E0,3.836E3,4.545E3,3E0,3.6E1,1.1E1,4.82E2,7.2E1,2.0553E4,2.236E3,1.06E2,9.976E3,1.61E2,5.225E3,5.5E1,2.551E3,4E0,3.457E3,3.79E2,2.319E3,2.226E3,2E1,1.6E1,1E0,1E1,4.25E2,5.7E1,2.7E1,4.5E1,1.9508E4,1.045E3],"tree_param":{"num_deleted":"0","num_feature":"16","num_nodes":"55","size_leaf_vector":"1"}},{"base_weights":[-4.3310784E-4,-1.7456087E-1,5.713822E0,-6.671574E-1,8.117397E-1,5.53767E0,1.7803085E0,-1.292363E0,1.3073544E-1,-3.1789668E0,8.963062E-1,1.5366724E0,1.7563065E0,-1.1803669E0,-4.483803E0,-3.6370954E-1,1.6941411E0,-3.9047772E-1,-3.9001064E0,4.546222E-1,1.247187E0,-1.2246456E0,3.6188247E0,-6.967911E0,-1.2750435E0,-6.913376E-1,1.1990525E0,1.7401636E0,-3.0934046E1,-3.616478E0,-9.575414E-2,-8.7049794E-1,-7.0027614E0,4.9551335E-1,-3.844429E0,-2.5780604E0,1.2579135E0,-4.149497E-1,-1.5878806E-2,1.7477043E0,-3.8016498E0,-2.4873743E0,-1.0634166E0,1.3391204E0,-8.546025E-1,-2.1280086E-1,9.744465E0,1.9136757E0,1.3195752E-1,4.677123E-1,2.87462E0,-1.15557575E1,-8.9019015E-2,-1.2699198E0,-8.003083E-2,-7.433846E-2,4.4738773E-1,-2.162192E0,9.4390416E-1,8.40854E-1,1.3031994E-1,-5.302887E0,-6.662282E-1,9.409163E-1,3.6054727E-1],"categories":[],"categories_nodes":[],"categories_segments":[],"categories_sizes":[],"default_left":[0,0,0,0,0,0,0,0,0,0,0,0,0,0,0,0,0,0,0,0,0,0,0,0,0,0,0,0,0,0,0,0,0,0,0,0,0,0,0,0,0,0,0,0,0,0,0,0,0,0,0,0,0,0,0,0,0,0,0,0,0,0,0,0,0],"id":10,"left_children":[1,3,5,7,9,11,-1,13,15,17,19,-1,-1,21,23,25,27,29,31,33,35,37,39,41,43,45,47,49,51,53,55,-1,57,59,61,-1,63,-1,-1,-1,-1,-1,-1,-1,-1,-1,-1,-1,-1,-1,-1,-1,-1,-1,-1,-1,-1,-1,-1,-1,-1,-1,-1,-1,-1],"loss_changes":[5.1144535E4,2.4235137E4,2.61875E1,1.6595314E4,5.610083E3,8.315625E1,0E0,6.6614707E3,1.1299048E4,6.922344E2,2.521088E3,0E0,0E0,3.8339375E3,5.0287246E3,5.6866416E3,5.327552E3,6.810974E1,8.284873E2,1.2684939E3,9.6788477E2,3.3166914E3,6.005883E3,1.5833027E3,2.5142258E3,5.504697E3,7.5673037E3,4.967634E3,1.1505132E3,1.1263092E1,1.6536346E1,0E0,1.5968994E2,1.0053071E3,1.4879136E3,0E0,9.5060254E2,0E0,0E0,0E0,0E0,0E0,0E0,0E0,0E0,0E0,0E0,0E0,0E0,0E0,0E0,0E0,0E0,0E0,0E0,0E0,0E0,0E0,0E0,0E0,0E0,0E0,0E0,0E0,0E0],"parents":[2147483647,0,0,1,1,2,2,3,3,4,4,5,5,7,7,8,8,9,9,10,10,13,13,14,14,15,15,16,16,17,17,18,18,19,19,20,20,21,21,22,22,23,23,24,24,25,25,26,26,27,27,28,28,29,29,30,30,32,32,33,33,34,34,36,36],"right_children":[2,4,6,8,10,12,-1,14,16,18,20,-1,-1,22,24,26,28,30,32,34,36,38,40,42,44,46,48,50,52,54,56,-1,58,60,62,-1,64,-1,-1,-1,-1,-1,-1,-1,-1,-1,-1,-1,-1,-1,-1,-1,-1,-1,-1,-1,-1,-1,-1,-1,-1,-1,-1,-1,-1],"split_conditions":[2.9E1,3.858228E1,3E1,1.8E1,4.5305357E0,1.6E1,1.7803085E0,1.0476786E0,9.1E-1,3.762E1,3.786E1,1.5366724E0,1.7563065E0,1.1182807E2,1.3136071E1,2.6E1,5.2345142E1,1.4131607E1,4.3089285E0,3.959018E1,8.964912E-1,5.0199043E1,1E1,1.6E1,9E0,2.898148E0,3.779E1,2.7E1,1.18997116E2,1.2002105E2,2.7E1,-8.7049794E-1,1.2002105E2,1.4173166E1,3.737E1,-2.5780604E0,3.877579E1,-4.149497E-1,-1.5878806E-2,1.7477043E0,-3.8016498E0,-2.4873743E0,-1.0634166E0,1.3391204E0,-8.546025E-1,-2.1280086E-1,9.744465E0,1.9136757E0,1.3195752E-1,4.677123E-1,2.87462E0,-1.15557575E1,-8.9019015E-2,-1.2699198E0,-8.003083E-2,-7.433846E-2,4.4738773E-1,-2.162192E0,9.4390416E-1,8.40854E-1,1.3031994E-1,-5.302887E0,-6.662282E-1,9.409163E-1,3.6054727E-1],"split_indices":[15,12,15,15,6,14,0,1,4,7,7,0,0,2,6,15,5,11,6,12,4,5,15,15,15,9,7,15,0,0,15,0,0,11,7,0,12,0,0,0,0,0,0,0,0,0,0,0,0,0,0,0,0,0,0,0,0,0,0,0,0,0,0,0,0],"split_type":[0,0,0,0,0,0,0,0,0,0,0,0,0,0,0,0,0,0,0,0,0,0,0,0,0,0,0,0,0,0,0,0,0,0,0,0,0,0,0,0,0,0,0,0,0,0,0,0,0,0,0,0,0,0,0,0,0,0,0,0,0,0,0,0,0],"sum_hessian":[5.1399E4,4.988E4,1.519E3,3.3266E4,1.6614E4,8.59E2,6.6E2,1.8651E4,1.4615E4,3.44E2,1.627E4,3.79E2,4.8E2,1.802E4,6.31E2,1.1104E4,3.511E3,7.1E1,2.73E2,7.204E3,9.066E3,1.7856E4,1.64E2,3.55E2,2.76E2,9.18E3,1.924E3,3.507E3,4E0,5E0,6.6E1,2.08E2,6.5E1,7.137E3,6.7E1,9E0,9.057E3,1.5728E4,2.128E3,1.45E2,1.9E1,2.55E2,1E2,5.9E1,2.17E2,9.176E3,4E0,2.45E2,1.679E3,3.429E3,7.8E1,3E0,1E0,4E0,1E0,6.1E1,5E0,6.4E1,1E0,1.83E2,6.954E3,6E0,6.1E1,2.61E2,8.796E3],"tree_param":{"num_deleted":"0","num_feature":"16","num_nodes":"65","size_leaf_vector":"1"}},{"base_weights":[-4.3051885E-4,-1.2242542E-1,4.0030093E0,-4.6707985E-1,5.676583E-1,3.9462137E0,1.3283954E0,-9.0495294E-1,9.173759E-2,-3.6921602E-1,7.509204E-1,3.8677227E0,1.2874063E0,-8.2652813E-1,-3.1619155E0,7.465736E-1,-5.239109E-1,-4.4052176E-2,-2.9909737E0,-7.993558E-2,8.127189E-1,3.7141051E0,1.216147E0,-8.545764E-1,2.8695467E0,-7.834273E0,-1.9921813E0,1.5548078E0,-1.0066415E-1,-3.1369498E-1,-1.9804873E0,-1.4089167E-1,9.3971884E-1,-2.0353262E0,-5.1294446E0,1.3518444E0,-2.4740933E-1,8.246094E-1,-3.0410933E0,1.0296745E0,1.1517545E0,-3.0161422E-1,-5.600943E-2,1.2771703E0,-2.5824842E0,-9.345562E-1,-2.5952275E0,-1.2946131E0,2.0622391E-2,2.3767406E-1,1.9091407E0,-4.3828927E-2,1.1753395E1,-2.6013035E-1,-3.948587E-2,-1.1766932E0,5.8148876E-3,-3.231457E0,-3.9353002E-2,-1.7482911E-1,3.36967E-1,-6.683309E-1,-5.585505E-1,-1.6415209E0,-2.5542527E-1,-4.69803E-1,7.999226E-1,-4.5007238E-1,-2.9880587E-2,1.7378464E-1,2.9402646E-1,-3.1679603E-1,-1.9956878E0],"categories":[],"categories_nodes":[],"categories_segments":[],"categories_sizes":[],"default_left":[0,0,0,0,0,0,0,0,0,0,0,0,0,0,0,0,0,0,0,0,0,0,0,0,0,0,0,0,0,0,0,0,0,0,0,0,0,0,0,0,0,0,0,0,0,0,0,0,0,0,0,0,0,0,0,0,0,0,0,0,0,0,0,0,0,0,0,0,0,0,0,0,0],"id":11,"left_children":[1,3,5,7,9,11,-1,13,15,17,19,21,-1,23,25,27,29,31,33,35,37,39,-1,41,43,45,47,49,51,53,55,57,59,61,63,65,67,69,71,-1,-1,-1,-1,-1,-1,-1,-1,-1,-1,-1,-1,-1,-1,-1,-1,-1,-1,-1,-1,-1,-1,-1,-1,-1,-1,-1,-1,-1,-1,-1,-1,-1,-1],"loss_changes":[2.510421E4,1.1863983E4,1.9214844E1,8.140222E3,2.8529663E3,1.9972656E1,0E0,3.2988242E3,5.8928145E3,2.3178179E3,7.1361475E2,1.6675781E1,0E0,1.8712832E3,3.4057432E3,4.8503574E3,2.3062556E3,2.306807E2,6.026472E2,2.3124797E2,5.952373E2,8.680664E0,0E0,1.801876E3,2.2028062E3,4.5468457E2,2.4038357E3,1.3288383E4,6.178372E3,6.634013E2,3.689301E3,2.2620868E2,6.1280533E1,2.8302612E0,1.3005981E2,3.915821E2,1.59659E2,4.9132715E2,2.7971985E2,0E0,0E0,0E0,0E0,0E0,0E0,0E0,0E0,0E0,0E0,0E0,0E0,0E0,0E0,0E0,0E0,0E0,0E0,0E0,0E0,0E0,0E0,0E0,0E0,0E0,0E0,0E0,0E0,0E0,0E0,0E0,0E0,0E0,0E0],"parents":[2147483647,0,0,1,1,2,2,3,3,4,4,5,5,7,7,8,8,9,9,10,10,11,11,13,13,14,14,15,15,16,16,17,17,18,18,19,19,20,20,21,21,23,23,24,24,25,25,26,26,27,27,28,28,29,29,30,30,31,31,32,32,33,33,34,34,35,35,36,36,37,37,38,38],"right_children":[2,4,6,8,10,12,-1,14,16,18,20,22,-1,24,26,28,30,32,34,36,38,40,-1,42,44,46,48,50,52,54,56,58,60,62,64,66,68,70,72,-1,-1,-1,-1,-1,-1,-1,-1,-1,-1,-1,-1,-1,-1,-1,-1,-1,-1,-1,-1,-1,-1,-1,-1,-1,-1,-1,-1,-1,-1,-1,-1,-1,-1],"split_conditions":[2.9E1,3.858228E1,4.8110332E1,1.8E1,8.978571E-1,2E1,1.3283954E0,1.1336429E2,3.638965E1,3.769E1,3E0,3E1,1.2874063E0,1.1212982E2,1.2871428E2,3.779E1,5.0085716E0,3.905107E1,4.3089285E0,3.8635086E1,1.1666667E-1,1.3E1,1.216147E0,3.4076607E1,1E1,8E0,3.757E1,5.6821427E0,1.862069E0,5E0,1.2042105E2,4.649E0,2.6E1,2E1,7.133929E0,5.090893E0,2E0,9E0,2.7339285E1,1.0296745E0,1.1517545E0,-3.0161422E-1,-5.600943E-2,1.2771703E0,-2.5824842E0,-9.345562E-1,-2.5952275E0,-1.2946131E0,2.0622391E-2,2.3767406E-1,1.9091407E0,-4.3828927E-2,1.1753395E1,-2.6013035E-1,-3.948587E-2,-1.1766932E0,5.8148876E-3,-3.231457E0,-3.9353002E-2,-1.7482911E-1,3.36967E-1,-6.683309E-1,-5.585505E-1,-1.6415209E0,-2.5542527E-1,-4.69803E-1,7.999226E-1,-4.5007238E-1,-2.9880587E-2,1.7378464E-1,2.9402646E-1,-3.1679603E-1,-1.9956878E0],"split_indices":[15,12,12,15,4,14,0,2,12,7,15,15,0,2,2,7,6,12,6,12,9,14,0,5,15,15,7,6,9,14,2,13,15,14,13,6,15,14,8,0,0,0,0,0,0,0,0,0,0,0,0,0,0,0,0,0,0,0,0,0,0,0,0,0,0,0,0,0,0,0,0,0,0],"split_type":[0,0,0,0,0,0,0,0,0,0,0,0,0,0,0,0,0,0,0,0,0,0,0,0,0,0,0,0,0,0,0,0,0,0,0,0,0,0,0,0,0,0,0,0,0,0,0,0,0,0,0,0,0,0,0,0,0,0,0,0,0,0,0,0,0,0,0,0,0,0,0,0,0],"sum_hessian":[5.1399E4,4.988E4,1.519E3,3.3266E4,1.6614E4,1.349E3,1.7E2,1.8651E4,1.4615E4,2.718E3,1.3896E4,1.109E3,2.4E2,1.8026E4,6.25E2,7.082E3,7.533E3,2.419E3,2.99E2,9.62E2,1.2934E4,6.19E2,4.9E2,1.7891E4,1.35E2,1.24E2,5.01E2,3.624E3,3.458E3,6.584E3,9.49E2,2.203E3,2.16E2,2.08E2,9.1E1,1E2,8.62E2,1.2895E4,3.9E1,1.99E2,4.2E2,1.4595E4,3.296E3,1.21E2,1.4E1,1.9E1,1.05E2,2.35E2,2.66E2,3.129E3,4.95E2,3.455E3,3E0,1.629E3,4.955E3,4.81E2,4.68E2,1E0,2.202E3,2.3E1,1.93E2,9.3E1,1.15E2,8.4E1,7E0,3.1E1,6.9E1,9E1,7.72E2,5.004E3,7.891E3,2.6E1,1.3E1],"tree_param":{"num_deleted":"0","num_feature":"16","num_nodes":"73","size_leaf_vector":"1"}},{"base_weights":[-2.2822253E-4,-1.1759472E-1,2.158058E0,-2.907394E-1,6.837577E-1,-5.3181357E0,2.428917E0,-5.008217E-1,2.3702243E-1,-8.5488087E-1,8.2610565E-1,-2.3807056E1,4.7712502E0,3.7854686E0,1.406823E0,-6.569671E-1,-8.475578E-2,4.2855176E-1,-7.736121E-1,-1.5209155E1,-7.35566E-1,7.3245746E-1,2.0225518E0,-1.8084166E1,-1.5671526E1,1.749625E1,2.4144015E-1,3.3721898E0,1.9472952E1,-1.5268384E-1,2.62948E0,-4.7848397E-1,-1.6507884E0,-9.729928E-2,1.9555248E1,-8.326251E-2,5.771254E-1,1.3944799E-1,-4.186062E0,-6.7811017E0,-8.402406E-2,-6.600195E-1,-5.6393447E0,2.926611E-1,8.1679165E-1,3.6487408E0,9.513055E-1,-1.8656988E1,-3.067699E-1,1.14684E0,5.7529635E0,-3.4655457E0,9.956567E-1,7.6150928E0,2.6949987E0,1.7853751E0,2.3696793E1,-2.7025038E-1,1.1887022E0,1.244316E0,2.905907E0,-2.1659221E-1,-3.3768237E-2,-3.3251736E-2,-1.3038814E0,-2.1806441E-1,3.815119E-2,-3.830588E0,1.3608212E1,3.830415E-1,-7.5464375E-2,1.812633E0,1.6045482E-1,-3.7148476E-2,1.4174228E0,-5.955931E-1,-4.882559E0,-1.8353826E-1,-2.7671404E0,1.3506463E0,7.4815385E-2,1.7319861E-1,2.913705E-1,5.275182E0,1.0342847E0,2.5163293E-1,1.0728052E0,-5.030727E0,-1.0444542E1,-1.5601754E0,3.4791413E-1,1.337853E-1,5.8362615E-1,6.6917973E0,1.8788532E0,7.564739E-1,8.878295E-1,9.256036E0,5.3743935E0,9.926651E-1,-9.1912195E-2,2.112752E-1,4.8335558E-1,2.6306087E-1,5.2080613E-1,-1.9627534E-1,8.736287E-1],"categories":[],"categories_nodes":[],"categories_segments":[],"categories_sizes":[],"default_left":[0,0,0,0,0,0,0,0,0,0,0,0,0,0,0,0,0,0,0,0,0,0,0,0,0,0,0,0,0,0,0,0,0,0,0,0,0,0,0,0,0,0,0,0,0,0,0,0,0,0,0,0,0,0,0,0,0,0,0,0,0,0,0,0,0,0,0,0,0,0,0,0,0,0,0,0,0,0,0,0,0,0,0,0,0,0,0,0,0,0,0,0,0,0,0,0,0,0,0,0,0,0,0,0,0,0,0],"id":12,"left_children":[1,3,5,7,9,11,13,15,17,19,21,23,25,27,29,31,33,35,37,39,41,43,45,47,-1,49,51,53,55,57,59,61,63,65,67,69,71,73,75,-1,-1,77,-1,79,81,83,85,87,-1,-1,-1,89,91,93,95,-1,97,99,101,103,105,-1,-1,-1,-1,-1,-1,-1,-1,-1,-1,-1,-1,-1,-1,-1,-1,-1,-1,-1,-1,-1,-1,-1,-1,-1,-1,-1,-1,-1,-1,-1,-1,-1,-1,-1,-1,-1,-1,-1,-1,-1,-1,-1,-1,-1,-1],"loss_changes":[1.3020413E4,6.764257E3,5.381176E3,4.444923E3,1.8978752E3,1.746198E4,3.542787E3,1.8628677E3,2.2098892E3,1.2459185E3,8.869238E2,4.4247305E3,3.5119277E3,7.0594863E3,2.7861511E3,3.6975898E3,1.9298724E3,7.298241E2,5.668172E3,6.5602893E2,9.823428E2,2.7255762E2,9.9820703E2,2.6434668E2,0E0,2.9429883E2,1.3206053E2,3.0596084E3,1.4581523E3,1.0172371E2,3.0997705E2,1.5749153E3,1.3174495E4,1.1055148E3,4.7498555E3,4.9470078E2,1.7152258E3,1.734123E3,1.0184078E4,0E0,0E0,2.946016E2,0E0,2.1475104E2,2.2766357E2,5.7839795E2,9.978461E1,2.703213E2,0E0,0E0,0E0,7.0231224E1,1.9493969E1,2.7805664E3,3.5001465E1,0E0,3.1626953E2,7.755415E1,9.508293E0,2.3410904E1,1.6930664E1,0E0,0E0,0E0,0E0,0E0,0E0,0E0,0E0,0E0,0E0,0E0,0E0,0E0,0E0,0E0,0E0,0E0,0E0,0E0,0E0,0E0,0E0,0E0,0E0,0E0,0E0,0E0,0E0,0E0,0E0,0E0,0E0,0E0,0E0,0E0,0E0,0E0,0E0,0E0,0E0,0E0,0E0,0E0,0E0,0E0,0E0],"parents":[2147483647,0,0,1,1,2,2,3,3,4,4,5,5,6,6,7,7,8,8,9,9,10,10,11,11,12,12,13,13,14,14,15,15,16,16,17,17,18,18,19,19,20,20,21,21,22,22,23,23,25,25,26,26,27,27,28,28,29,29,30,30,31,31,32,32,33,33,34,34,35,35,36,36,37,37,38,38,41,41,43,43,44,44,45,45,46,46,47,47,51,51,52,52,53,53,54,54,56,56,57,57,58,58,59,59,60,60],"right_children":[2,4,6,8,10,12,14,16,18,20,22,24,26,28,30,32,34,36,38,40,42,44,46,48,-1,50,52,54,56,58,60,62,64,66,68,70,72,74,76,-1,-1,78,-1,80,82,84,86,88,-1,-1,-1,90,92,94,96,-1,98,100,102,104,106,-1,-1,-1,-1,-1,-1,-1,-1,-1,-1,-1,-1,-1,-1,-1,-1,-1,-1,-1,-1,-1,-1,-1,-1,-1,-1,-1,-1,-1,-1,-1,-1,-1,-1,-1,-1,-1,-1,-1,-1,-1,-1,-1,-1,-1,-1],"split_conditions":[2.7E1,9.380357E-1,1.18997116E2,3.854526E1,1.1E1,3.534E1,3.779E1,2E1,1E1,1.1917069E2,6.0605264E0,5.59125E0,3.779E1,6.2579613E0,8.184904E0,4.9998217E0,2.898148E0,3E0,3.71E1,8.4267855E-1,1.4391786E1,1.2E1,3.896E1,2.5894737E1,-1.5671526E1,1.0554807E0,3E0,1.1917069E2,1.0603654E0,6.3648334E0,3.805E1,4.67375E0,1E1,8.265865E0,1.19189255E2,3.8635086E1,4.9998217E0,1.0699091E0,5.067917E0,-6.7811017E0,-8.402406E-2,3.959018E1,-5.6393447E0,5.098214E0,9E0,1.19936844E2,4.0575966E1,9.1E-1,-3.067699E-1,1.14684E0,5.7529635E0,3.5934822E1,8.166442E0,3.453E1,1.8E1,1.7853751E0,3.432E1,1.1147857E2,3.4260384E1,3.4130287E1,5.9892857E1,-2.1659221E-1,-3.3768237E-2,-3.3251736E-2,-1.3038814E0,-2.1806441E-1,3.815119E-2,-3.830588E0,1.3608212E1,3.830415E-1,-7.5464375E-2,1.812633E0,1.6045482E-1,-3.7148476E-2,1.4174228E0,-5.955931E-1,-4.882559E0,-1.8353826E-1,-2.7671404E0,1.3506463E0,7.4815385E-2,1.7319861E-1,2.913705E-1,5.275182E0,1.0342847E0,2.5163293E-1,1.0728052E0,-5.030727E0,-1.0444542E1,-1.5601754E0,3.4791413E-1,1.337853E-1,5.8362615E-1,6.6917973E0,1.8788532E0,7.564739E-1,8.878295E-1,9.256036E0,5.3743935E0,9.926651E-1,-9.1912195E-2,2.112752E-1,4.8335558E-1,2.6306087E-1,5.2080613E-1,-1.9627534E-1,8.736287E-1],"split_indices":[15,4,0,12,15,7,7,15,15,0,6,6,7,6,11,6,9,15,7,1,11,15,12,8,0,1,14,0,1,6,7,6,15,11,0,12,6,1,6,0,0,12,0,6,14,0,12,4,0,0,0,12,11,7,14,0,7,2,12,12,3,0,0,0,0,0,0,0,0,0,0,0,0,0,0,0,0,0,0,0,0,0,0,0,0,0,0,0,0,0,0,0,0,0,0,0,0,0,0,0,0,0,0,0,0,0,0],"split_type":[0,0,0,0,0,0,0,0,0,0,0,0,0,0,0,0,0,0,0,0,0,0,0,0,0,0,0,0,0,0,0,0,0,0,0,0,0,0,0,0,0,0,0,0,0,0,0,0,0,0,0,0,0,0,0,0,0,0,0,0,0,0,0,0,0,0,0,0,0,0,0,0,0,0,0,0,0,0,0,0,0,0,0,0,0,0,0,0,0,0,0,0,0,0,0,0,0,0,0,0,0,0,0,0,0,0,0],"sum_hessian":[5.1399E4,4.8749E4,2.65E3,4.0088E4,8.661E3,9.2E1,2.558E3,2.8674E4,1.1414E4,7.33E2,7.928E3,3.2E1,6E1,1.098E3,1.46E3,2.0849E4,7.825E3,9.596E3,1.818E3,5E0,7.28E2,7.354E3,5.74E2,2.8E1,4E0,1.5E1,4.5E1,1.071E3,2.7E1,6.42E2,8.18E2,1.7676E4,3.173E3,7.821E3,4E0,2.159E3,7.437E3,1.435E3,3.83E2,3E0,2E0,7.26E2,2E0,1.184E3,6.17E3,2.27E2,3.47E2,2.7E1,1E0,2E0,1.3E1,7E0,3.8E1,1.46E2,9.25E2,7E0,2E1,5.91E2,5.1E1,1.37E2,6.81E2,1.0613E4,7.063E3,2.02E3,1.153E3,2.055E3,5.766E3,2E0,2E0,2.37E2,1.922E3,5.6E1,7.381E3,1.358E3,7.7E1,3.25E2,5.8E1,7.23E2,3E0,1.1E1,1.173E3,2.421E3,3.749E3,2E0,2.25E2,3.34E2,1.3E1,2.6E1,1E0,5E0,2E0,2.5E1,1.3E1,1.1E1,1.35E2,5.65E2,3.6E2,7E0,1.3E1,5E0,5.86E2,2.5E1,2.6E1,8E1,5.7E1,1E0,6.8E2],"tree_param":{"num_deleted":"0","num_feature":"16","num_nodes":"107","size_leaf_vector":"1"}},{"base_weights":[-6.402098E-5,-8.231073E-2,1.5123943E0,-2.39396E-1,3.9329952E-1,-3.9920359E0,1.7118472E0,-4.0087882E-1,1.3519554E-1,-8.280504E-1,5.982928E-1,-1.7618076E1,3.4448721E0,2.6740649E0,9.868716E-1,-7.4040943E-1,-1.9544572E-1,2.634339E-1,-5.383866E-1,-2.4206135E-1,-1.5472839E0,-3.0474615E0,6.19104E-1,-1.3203122E1,-1.191036E1,1.2678616E1,1.582469E-1,2.370067E0,1.4217345E1,-1.0439114E-1,1.8424212E0,4.9716853E-2,-8.6965865E-1,-1.8089559E0,-9.807961E-2,2.3010142E-1,1.814351E0,-2.8598163E0,7.263885E-2,2.4766445E0,-4.619767E-1,-1.7110456E0,2.2164986E0,-1.463576E1,-1.9385715E0,5.975022E-1,3.7250125E0,-7.8054976E0,-1.1290207E1,9.174729E-1,4.150353E0,4.5221186E-1,-1.9605263E0,5.388861E0,1.888282E0,6.1364107E0,1.8365843E1,-4.418981E-1,3.211155E-1,8.777965E-1,2.045178E0,-1.2514302E-1,3.0741155E-1,-3.3141595E-1,-6.016871E-2,-4.58307E-1,-2.1891832E0,-3.0991446E-2,4.693259E0,4.92022E-2,3.0309638E-1,4.2702737E0,5.030876E-1,-4.2838684E-1,-4.0946426E0,-2.2486612E-2,9.9337876E-1,4.0391508E-1,1.9045227E0,-3.0428398E0,-1.1872416E-1,-4.5354753E0,-4.9647328E-1,2.3289635E0,2.089108E-1,-9.687126E-1,-5.004054E0,1.5158805E-1,-1.074938E0,3.1940424E-1,1.5253542E-1,-2.3066254E-1,1.1803739E0,-5.952301E-1,-3.7112398E0,-7.255955E-1,2.1445814E-1,4.851551E0,1.3193396E0,5.730791E-1,1.5560503E-1,1.2361196E0,2.319464E0,5.8077965E0,2.2150269E-1,7.445E-1,-1.4706053E-1,-1.5466734E-2,1.5969184E-1,1.9613604E-1,4.166264E-1,6.844441E-1,5.6871414E-1],"categories":[],"categories_nodes":[],"categories_segments":[],"categories_sizes":[],"default_left":[0,0,0,0,0,0,0,0,0,0,0,0,0,0,0,0,0,0,0,0,0,0,0,0,0,0,0,0,0,0,0,0,0,0,0,0,0,0,0,0,0,0,0,0,0,0,0,0,0,0,0,0,0,0,0,0,0,0,0,0,0,0,0,0,0,0,0,0,0,0,0,0,0,0,0,0,0,0,0,0,0,0,0,0,0,0,0,0,0,0,0,0,0,0,0,0,0,0,0,0,0,0,0,0,0,0,0,0,0,0,0,0,0],"id":13,"left_children":[1,3,5,7,9,11,13,15,17,19,21,23,25,27,29,31,33,35,37,39,41,43,45,47,-1,49,51,53,55,57,59,61,63,65,67,69,71,73,75,77,79,81,83,85,87,89,91,-1,93,-1,-1,95,-1,97,99,101,103,105,107,109,111,-1,-1,-1,-1,-1,-1,-1,-1,-1,-1,-1,-1,-1,-1,-1,-1,-1,-1,-1,-1,-1,-1,-1,-1,-1,-1,-1,-1,-1,-1,-1,-1,-1,-1,-1,-1,-1,-1,-1,-1,-1,-1,-1,-1,-1,-1,-1,-1,-1,-1,-1,-1],"loss_changes":[6.3940137E3,3.6422737E3,2.9172979E3,2.2168342E3,3.0309565E3,9.484903E3,1.7824795E3,1.7860352E3,9.5376666E2,7.3297107E2,7.8830566E2,2.6931875E3,1.8492129E3,3.8228438E3,1.3642249E3,9.858379E2,2.5065293E3,4.7906207E2,2.5051948E3,5.7511395E2,4.851725E2,7.2978644E2,6.893076E2,4.1716553E2,0E0,1.356128E2,9.34651E1,1.5489512E3,8.2596387E2,9.2484055E1,1.5838818E2,6.185664E2,1.3045605E3,1.390512E3,1.2394973E3,4.6812268E2,3.088778E2,5.665495E3,6.689731E2,3.0653204E2,5.6597394E2,5.3868555E2,2.7284076E2,6.2739502E1,2.2285942E2,4.2534448E2,6.9890686E1,0E0,2.4696997E2,0E0,0E0,3.566027E1,0E0,1.499811E3,2.6887451E1,3.5168762E0,3.0093262E2,5.191407E1,2.2458277E1,1.5574234E1,1.9550537E1,0E0,0E0,0E0,0E0,0E0,0E0,0E0,0E0,0E0,0E0,0E0,0E0,0E0,0E0,0E0,0E0,0E0,0E0,0E0,0E0,0E0,0E0,0E0,0E0,0E0,0E0,0E0,0E0,0E0,0E0,0E0,0E0,0E0,0E0,0E0,0E0,0E0,0E0,0E0,0E0,0E0,0E0,0E0,0E0,0E0,0E0,0E0,0E0,0E0,0E0,0E0,0E0],"parents":[2147483647,0,0,1,1,2,2,3,3,4,4,5,5,6,6,7,7,8,8,9,9,10,10,11,11,12,12,13,13,14,14,15,15,16,16,17,17,18,18,19,19,20,20,21,21,22,22,23,23,25,25,26,26,27,27,28,28,29,29,30,30,31,31,32,32,33,33,34,34,35,35,36,36,37,37,38,38,39,39,40,40,41,41,42,42,43,43,44,44,45,45,46,46,48,48,51,51,53,53,54,54,55,55,56,56,57,57,58,58,59,59,60,60],"right_children":[2,4,6,8,10,12,14,16,18,20,22,24,26,28,30,32,34,36,38,40,42,44,46,48,-1,50,52,54,56,58,60,62,64,66,68,70,72,74,76,78,80,82,84,86,88,90,92,-1,94,-1,-1,96,-1,98,100,102,104,106,108,110,112,-1,-1,-1,-1,-1,-1,-1,-1,-1,-1,-1,-1,-1,-1,-1,-1,-1,-1,-1,-1,-1,-1,-1,-1,-1,-1,-1,-1,-1,-1,-1,-1,-1,-1,-1,-1,-1,-1,-1,-1,-1,-1,-1,-1,-1,-1,-1,-1,-1,-1,-1,-1],"split_conditions":[2.7E1,9.2035717E-1,1.18997116E2,3.854526E1,3.2335094E1,3.534E1,3.779E1,9E0,1E1,4.9998217E0,6.9814286E0,5.59125E0,3.779E1,6.2579613E0,8.184904E0,6.624107E1,6E0,3.5017544E1,2.3E1,9.276786E-1,1.1957667E2,8.526786E-1,2.4E1,5.9926315E1,-1.191036E1,1.0554807E0,1.1721429E0,1.1917069E2,9.035714E-1,3.4130287E1,3.476964E1,1E1,2.4E1,5.4317546E0,2.898148E0,9E0,4.9798245E0,5.23E0,9.056731E-1,8.6887807E-1,1.19189255E2,8.4267855E-1,3.847923E1,5.067917E0,3.6266834E1,1E1,1.4151334E1,-7.8054976E0,9.035714E-1,9.174729E-1,4.150353E0,7.3551664E0,-1.9605263E0,3.453E1,3.700912E1,1.0591538E0,1.1904175E2,1.1147857E2,1.05E0,9.708738E-3,3.508772E1,-1.2514302E-1,3.0741155E-1,-3.3141595E-1,-6.016871E-2,-4.58307E-1,-2.1891832E0,-3.0991446E-2,4.693259E0,4.92022E-2,3.0309638E-1,4.2702737E0,5.030876E-1,-4.2838684E-1,-4.0946426E0,-2.2486612E-2,9.9337876E-1,4.0391508E-1,1.9045227E0,-3.0428398E0,-1.1872416E-1,-4.5354753E0,-4.9647328E-1,2.3289635E0,2.089108E-1,-9.687126E-1,-5.004054E0,1.5158805E-1,-1.074938E0,3.1940424E-1,1.5253542E-1,-2.3066254E-1,1.1803739E0,-5.952301E-1,-3.7112398E0,-7.255955E-1,2.1445814E-1,4.851551E0,1.3193396E0,5.730791E-1,1.5560503E-1,1.2361196E0,2.319464E0,5.8077965E0,2.2150269E-1,7.445E-1,-1.4706053E-1,-1.5466734E-2,1.5969184E-1,1.9613604E-1,4.166264E-1,6.844441E-1,5.6871414E-1],"split_indices":[15,4,0,12,12,7,7,14,15,6,11,6,7,6,11,2,15,10,15,4,0,1,15,3,0,1,1,0,4,12,12,15,15,6,9,15,6,6,4,1,0,1,7,6,7,15,11,0,4,0,0,11,0,7,7,1,0,2,1,9,10,0,0,0,0,0,0,0,0,0,0,0,0,0,0,0,0,0,0,0,0,0,0,0,0,0,0,0,0,0,0,0,0,0,0,0,0,0,0,0,0,0,0,0,0,0,0,0,0,0,0,0,0],"split_type":[0,0,0,0,0,0,0,0,0,0,0,0,0,0,0,0,0,0,0,0,0,0,0,0,0,0,0,0,0,0,0,0,0,0,0,0,0,0,0,0,0,0,0,0,0,0,0,0,0,0,0,0,0,0,0,0,0,0,0,0,0,0,0,0,0,0,0,0,0,0,0,0,0,0,0,0,0,0,0,0,0,0,0,0,0,0,0,0,0,0,0,0,0,0,0,0,0,0,0,0,0,0,0,0,0,0,0,0,0,0,0,0,0],"sum_hessian":[5.1399E4,4.8749E4,2.65E3,3.6646E4,1.2103E4,9.2E1,2.558E3,2.5607E4,1.1039E4,1.739E3,1.0364E4,3.2E1,6E1,1.098E3,1.46E3,9.652E3,1.5955E4,9.274E3,1.765E3,9.59E2,7.8E2,5.8E1,1.0306E4,2.8E1,4E0,1.5E1,4.5E1,1.071E3,2.7E1,6.42E2,8.18E2,1.357E3,8.295E3,9.07E2,1.5048E4,9.08E3,1.94E2,3.67E2,1.398E3,7.1E1,8.88E2,7.48E2,3.2E1,4E0,5.4E1,1.0236E4,7E1,2E0,2.6E1,2E0,1.3E1,4.4E1,1E0,1.46E2,9.25E2,1E1,1.7E1,3.58E2,2.84E2,1.43E2,6.75E2,9.18E2,4.39E2,6.138E3,2.157E3,8.64E2,4.3E1,1.5044E4,4E0,8.372E3,7.08E2,1E0,1.93E2,3.25E2,4.2E1,1.338E3,6E1,5.6E1,1.5E1,5E0,8.83E2,2E0,7.46E2,6E0,2.6E1,1E0,3E0,2.2E1,3.2E1,1.637E3,8.599E3,3E0,6.7E1,3E0,2.3E1,3E0,4.1E1,1.1E1,1.35E2,9.1E2,1.5E1,6E0,4E0,1.6E1,1E0,5E0,3.53E2,1.03E2,1.81E2,1.01E2,4.2E1,2.56E2,4.19E2],"tree_param":{"num_deleted":"0","num_feature":"16","num_nodes":"113","size_leaf_vector":"1"}},{"base_weights":[-1.9544554E-4,-8.0217466E-2,8.529068E-1,-2.038782E-1,2.692852E-1,6.996506E-1,2.461671E0,-3.6116225E-1,5.187997E-2,-5.7047147E-1,4.1703087E-1,-8.337094E0,8.107871E-1,3.0453668E0,4.245435E-1,-2.3646824E-1,-1.1539406E0,2.817071E0,-1.21122915E-2,-1.3951734E-1,-1.0712281E0,-2.659274E0,4.317864E-1,-1.3060603E1,1.3224856E0,1.578854E0,5.775605E-1,1.5530474E1,2.6669521E0,-9.399807E-1,-7.023159E-2,-4.644561E-1,-4.138762E0,1.3679615E0,4.9672594E0,1.6301405E-1,-4.3031853E-1,-8.024749E-1,6.092832E-1,-2.004195E0,-5.291931E-1,-1.1052604E1,-1.2635335E0,4.1607687E-1,2.8116665E0,-9.65984E0,-9.051873E0,6.2577696E0,-6.774304E-1,1.4466896E0,8.560659E0,3.3034283E-1,1.3609782E0,1.7228676E1,8.011895E-1,5.145939E0,1.8441501E0,-3.0157378E-1,1.1231E0,1.2730765E-1,-6.5305196E-2,-1.5118463E-1,5.504382E0,-3.8939755E0,-9.792154E-1,3.6696255E-1,4.0918145E0,4.614803E0,1.4251406E0,4.387894E-1,3.653399E-2,-3.1319562E-2,-1.3630564E0,-3.6839964E0,-2.0723574E-1,2.1514804E0,1.2588468E-1,-2.1883736E0,-5.1373297E-1,-1.9673634E-1,5.9815204E-1,-1.4051812E0,-4.397436E0,-9.980999E-1,-1.4246799E-1,1.1948323E-1,6.590481E-1,3.8602713E-1,1.0260714E0,-6.244398E0,-2.418793E0,7.339768E-1,2.3949082E0,-5.0648254E-1,-1.217397E-2,8.674931E-1,3.9002943E-1,4.480792E0,3.7024844E-1,-8.628072E-2,1.7737326E-1,9.398138E-2,4.4456443E-1,2.2638092E0,6.0550475E0,3.0067344E0,7.7371067E-1,4.4959244E-1,1.1820534E0],"categories":[],"categories_nodes":[],"categories_segments":[],"categories_sizes":[],"default_left":[0,0,0,0,0,0,0,0,0,0,0,0,0,0,0,0,0,0,0,0,0,0,0,0,0,0,0,0,0,0,0,0,0,0,0,0,0,0,0,0,0,0,0,0,0,0,0,0,0,0,0,0,0,0,0,0,0,0,0,0,0,0,0,0,0,0,0,0,0,0,0,0,0,0,0,0,0,0,0,0,0,0,0,0,0,0,0,0,0,0,0,0,0,0,0,0,0,0,0,0,0,0,0,0,0,0,0,0,0],"id":14,"left_children":[1,3,5,7,9,11,13,15,17,19,21,23,25,27,-1,29,31,33,35,37,39,41,43,45,47,49,51,53,55,57,59,61,63,65,67,69,71,73,75,77,79,81,83,85,87,89,-1,91,93,95,97,99,101,103,-1,105,107,-1,-1,-1,-1,-1,-1,-1,-1,-1,-1,-1,-1,-1,-1,-1,-1,-1,-1,-1,-1,-1,-1,-1,-1,-1,-1,-1,-1,-1,-1,-1,-1,-1,-1,-1,-1,-1,-1,-1,-1,-1,-1,-1,-1,-1,-1,-1,-1,-1,-1,-1,-1],"loss_changes":[3.5089905E3,2.0310808E3,1.0850837E3,1.3963672E3,1.5240708E3,4.0501196E3,2.2964697E2,2.1245105E3,2.3391467E3,3.964967E2,4.7527197E2,2.2530005E3,7.1168164E2,1.1160952E3,0E0,2.1721548E3,6.00946E3,9.248467E2,9.463903E2,4.9145126E2,4.2878516E2,5.7178015E2,3.8750305E2,1.6289668E3,1.7203181E2,8.420779E2,5.908392E2,1.0685889E2,4.7800208E2,1.0889243E3,1.0958438E3,1.7730121E3,4.1955664E3,3.030548E2,1.978811E2,4.879063E2,5.112479E3,6.645216E2,5.757572E2,4.6907422E2,1.7346555E2,9.207861E1,7.002265E1,3.2651636E2,5.8704163E1,3.4885547E2,0E0,1.3345139E1,8.300329E0,1.8899512E2,7.7561475E2,3.7452917E2,9.225903E1,1.9357178E1,0E0,7.1268567E2,1.251745E2,0E0,0E0,0E0,0E0,0E0,0E0,0E0,0E0,0E0,0E0,0E0,0E0,0E0,0E0,0E0,0E0,0E0,0E0,0E0,0E0,0E0,0E0,0E0,0E0,0E0,0E0,0E0,0E0,0E0,0E0,0E0,0E0,0E0,0E0,0E0,0E0,0E0,0E0,0E0,0E0,0E0,0E0,0E0,0E0,0E0,0E0,0E0,0E0,0E0,0E0,0E0,0E0],"parents":[2147483647,0,0,1,1,2,2,3,3,4,4,5,5,6,6,7,7,8,8,9,9,10,10,11,11,12,12,13,13,15,15,16,16,17,17,18,18,19,19,20,20,21,21,22,22,23,23,24,24,25,25,26,26,27,27,28,28,29,29,30,30,31,31,32,32,33,33,34,34,35,35,36,36,37,37,38,38,39,39,40,40,41,41,42,42,43,43,44,44,45,45,47,47,48,48,49,49,50,50,51,51,52,52,53,53,55,55,56,56],"right_children":[2,4,6,8,10,12,14,16,18,20,22,24,26,28,-1,30,32,34,36,38,40,42,44,46,48,50,52,54,56,58,60,62,64,66,68,70,72,74,76,78,80,82,84,86,88,90,-1,92,94,96,98,100,102,104,-1,106,108,-1,-1,-1,-1,-1,-1,-1,-1,-1,-1,-1,-1,-1,-1,-1,-1,-1,-1,-1,-1,-1,-1,-1,-1,-1,-1,-1,-1,-1,-1,-1,-1,-1,-1,-1,-1,-1,-1,-1,-1,-1,-1,-1,-1,-1,-1,-1,-1,-1,-1,-1,-1],"split_conditions":[2.6E1,9.201786E-1,1.107193E0,3.8113335E1,3.2601925E1,1.18997116E2,2.9E1,5.0392857E0,1.4192281E1,4.9998217E0,6.9814286E0,3.534E1,3.284202E1,3.244096E1,4.245435E-1,8E0,1.199E2,3.721E1,1E1,7.0491667E0,3E0,9.4316666E1,2.4E1,5.59125E0,3.777E1,9.0126216E-1,3.8376152E1,5.998036E1,3.779E1,4.6675903E1,3.4657402E1,3.5785713E1,1.099875E2,3.455357E1,5.991786E1,3.8635086E1,4.9998217E0,1.1920167E2,9.2561406E-1,6.9814286E0,1.19975E2,5.085E0,8.605667E-1,1.5307544E1,3.7969475E1,5.9926315E1,-9.051873E0,1.0554807E0,5.995088E1,4E0,1.1904175E2,7E0,8.265865E0,5.993846E1,8.011895E-1,1.1902116E2,1.3787679E1,-3.0157378E-1,1.1231E0,1.2730765E-1,-6.5305196E-2,-1.5118463E-1,5.504382E0,-3.8939755E0,-9.792154E-1,3.6696255E-1,4.0918145E0,4.614803E0,1.4251406E0,4.387894E-1,3.653399E-2,-3.1319562E-2,-1.3630564E0,-3.6839964E0,-2.0723574E-1,2.1514804E0,1.2588468E-1,-2.1883736E0,-5.1373297E-1,-1.9673634E-1,5.9815204E-1,-1.4051812E0,-4.397436E0,-9.980999E-1,-1.4246799E-1,1.1948323E-1,6.590481E-1,3.8602713E-1,1.0260714E0,-6.244398E0,-2.418793E0,7.339768E-1,2.3949082E0,-5.0648254E-1,-1.217397E-2,8.674931E-1,3.9002943E-1,4.480792E0,3.7024844E-1,-8.628072E-2,1.7737326E-1,9.398138E-2,4.4456443E-1,2.2638092E0,6.0550475E0,3.0067344E0,7.7371067E-1,4.4959244E-1,1.1820534E0],"split_indices":[15,4,1,12,12,0,15,6,11,6,11,7,12,12,0,15,0,7,15,11,15,2,15,6,7,4,7,3,7,5,12,10,2,10,3,12,6,0,4,11,0,6,1,13,12,3,0,1,3,14,0,14,11,3,0,0,11,0,0,0,0,0,0,0,0,0,0,0,0,0,0,0,0,0,0,0,0,0,0,0,0,0,0,0,0,0,0,0,0,0,0,0,0,0,0,0,0,0,0,0,0,0,0,0,0,0,0,0,0],"split_type":[0,0,0,0,0,0,0,0,0,0,0,0,0,0,0,0,0,0,0,0,0,0,0,0,0,0,0,0,0,0,0,0,0,0,0,0,0,0,0,0,0,0,0,0,0,0,0,0,0,0,0,0,0,0,0,0,0,0,0,0,0,0,0,0,0,0,0,0,0,0,0,0,0,0,0,0,0,0,0,0,0,0,0,0,0,0,0,0,0,0,0,0,0,0,0,0,0,0,0,0,0,0,0,0,0,0,0,0,0],"sum_hessian":[5.1399E4,4.6992E4,4.407E3,3.4711E4,1.2281E4,4.025E3,3.82E2,2.1493E4,1.3218E4,1.837E3,1.0444E4,4.8E1,3.977E3,2.44E2,1.38E2,1.8573E4,2.92E3,2.98E2,1.292E4,9.88E2,8.49E2,4.9E1,1.0395E4,3.2E1,1.6E1,9.25E2,3.052E3,6E0,2.38E2,3.549E3,1.5024E4,2.373E3,5.47E2,1.79E2,1.19E2,9.107E3,3.813E3,5.24E2,4.64E2,3.11E2,5.38E2,6E0,4.3E1,1.0328E4,6.7E1,2.8E1,4E0,4E0,1.2E1,9.09E2,1.6E1,2.321E3,7.31E2,5E0,1E0,5.8E1,1.8E2,3.501E3,4.8E1,3.45E3,1.1574E4,2.369E3,4E0,4.8E1,4.99E2,1.78E2,1E0,1E0,1.18E2,2.79E2,8.828E3,3.534E3,2.79E2,4E0,5.2E2,1.2E1,4.52E2,1.5E1,2.96E2,5.13E2,2.5E1,3E0,3E0,1.1E1,3.2E1,1.0227E4,1.01E2,2E1,4.7E1,2E0,2.6E1,2E0,2E0,4E0,8E0,8.2E1,8.27E2,8E0,8E0,6.89E2,1.632E3,7.6E1,6.55E2,2E0,3E0,1.9E1,3.9E1,1.56E2,2.4E1],"tree_param":{"num_deleted":"0","num_feature":"16","num_nodes":"109","size_leaf_vector":"1"}},{"base_weights":[3.9487386E-5,-5.6100186E-2,5.985358E-1,-1.5245667E-1,1.7577128E-1,4.8768306E-1,1.7622291E0,-3.0506617E-1,4.771443E-2,1.311677E-1,1.9459755E0,-6.144228E0,5.6925064E-1,2.1910765E0,9.9366903E-1,-8.902439E-2,-5.063652E-1,-2.7913445E-1,2.6358032E-1,-6.8229747E-1,2.0983882E-1,3.5086992E0,6.416453E-1,-9.679242E0,1.0792837E0,1.1708214E0,4.1195637E-1,1.2174192E1,1.8895162E0,3.3747712E-1,2.6661375E-1,-7.682673E-2,-5.111522E0,-3.3189908E-1,-1.9097162E0,-2.5229076E-1,-5.9228735E0,2.5341114E-1,8.847037E0,-2.827831E0,-3.9502934E-1,2.339776E-1,-2.1189206E0,2.8497071E0,5.932053E0,7.34563E-2,1.7768385E0,-7.0606184E0,-2.2931412E1,5.006213E0,-5.140956E-1,6.213717E0,9.4591993E-1,8.693849E-2,6.940104E-1,1.3446546E1,6.810105E-1,3.666233E0,1.2999262E0,-6.0372923E-2,1.09786935E-1,1.1171159E0,-1.8543698E0,-3.5269788E-1,-6.1337084E-2,-2.322552E0,-2.832093E-1,-6.9571964E-2,-2.111216E0,-2.660681E0,-2.4942712E-1,1.5228099E-1,2.7392937E-3,-3.0035582E0,-5.850439E-1,-5.0763167E-2,-3.3568954E-1,6.521373E-2,5.2999395E-1,-2.4251356E0,-9.965576E-2,1.1550828E0,7.07129E-1,5.42787E-1,2.317139E0,-6.152775E-1,1.0150444E-1,1.8343997E-1,6.22062E-1,-3.927446E0,-1.4754462E0,-7.5879183E0,-2.0227222E0,5.871811E-1,1.9159257E0,-6.3175964E-3,-4.8544922E-1,3.7630343E0,5.709795E-1,2.2464356E-1,3.221068E-1,-1.5657893E0,3.5883304E-2,1.091676E-1,3.344531E-1,1.1804329E0,4.3685837E0,2.1498168E0,5.473999E-1,4.172124E-1,-1.3650101E0],"categories":[],"categories_nodes":[],"categories_segments":[],"categories_sizes":[],"default_left":[0,0,0,0,0,0,0,0,0,0,0,0,0,0,0,0,0,0,0,0,0,0,0,0,0,0,0,0,0,0,0,0,0,0,0,0,0,0,0,0,0,0,0,0,0,0,0,0,0,0,0,0,0,0,0,0,0,0,0,0,0,0,0,0,0,0,0,0,0,0,0,0,0,0,0,0,0,0,0,0,0,0,0,0,0,0,0,0,0,0,0,0,0,0,0,0,0,0,0,0,0,0,0,0,0,0,0,0,0,0,0],"id":15,"left_children":[1,3,5,7,9,11,13,15,17,19,21,23,25,27,29,31,33,35,37,39,41,43,45,47,49,51,53,55,57,-1,-1,59,61,63,65,67,69,71,-1,73,75,77,79,81,83,85,87,89,91,93,95,97,99,101,103,105,-1,107,109,-1,-1,-1,-1,-1,-1,-1,-1,-1,-1,-1,-1,-1,-1,-1,-1,-1,-1,-1,-1,-1,-1,-1,-1,-1,-1,-1,-1,-1,-1,-1,-1,-1,-1,-1,-1,-1,-1,-1,-1,-1,-1,-1,-1,-1,-1,-1,-1,-1,-1,-1,-1],"loss_changes":[1.727042E3,1.0499594E3,5.6776636E2,1.01414746E3,1.0890417E3,2.1813586E3,1.2405774E2,8.191572E2,1.0133921E3,8.614042E2,6.88735E2,1.2616724E3,3.7593054E2,7.145718E2,9.151459E-1,5.5630164E2,2.3867734E3,8.640183E2,2.563397E3,7.3048254E2,6.903469E2,2.2902905E2,1.1984028E2,9.8327075E2,1.0894418E2,9.2866565E2,2.891667E2,5.768701E1,2.4559491E2,0E0,0E0,4.995147E2,2.3094244E2,9.324805E2,6.0639834E3,7.849308E2,3.976189E2,5.369851E2,0E0,8.63219E2,1.7113591E2,3.0863593E2,1.340176E3,5.155005E1,2.224071E2,7.103534E1,2.0169693E1,3.103208E2,2.0627686E1,8.540878E0,7.042429E0,9.310663E2,1.9091675E1,2.5495518E2,2.3423828E2,6.3586426E0,0E0,3.6718866E2,1.0245151E2,0E0,0E0,0E0,0E0,0E0,0E0,0E0,0E0,0E0,0E0,0E0,0E0,0E0,0E0,0E0,0E0,0E0,0E0,0E0,0E0,0E0,0E0,0E0,0E0,0E0,0E0,0E0,0E0,0E0,0E0,0E0,0E0,0E0,0E0,0E0,0E0,0E0,0E0,0E0,0E0,0E0,0E0,0E0,0E0,0E0,0E0,0E0,0E0,0E0,0E0,0E0,0E0],"parents":[2147483647,0,0,1,1,2,2,3,3,4,4,5,5,6,6,7,7,8,8,9,9,10,10,11,11,12,12,13,13,14,14,15,15,16,16,17,17,18,18,19,19,20,20,21,21,22,22,23,23,24,24,25,25,26,26,27,27,28,28,31,31,32,32,33,33,34,34,35,35,36,36,37,37,39,39,40,40,41,41,42,42,43,43,44,44,45,45,46,46,47,47,48,48,49,49,50,50,51,51,52,52,53,53,54,54,55,55,57,57,58,58],"right_children":[2,4,6,8,10,12,14,16,18,20,22,24,26,28,30,32,34,36,38,40,42,44,46,48,50,52,54,56,58,-1,-1,60,62,64,66,68,70,72,-1,74,76,78,80,82,84,86,88,90,92,94,96,98,100,102,104,106,-1,108,110,-1,-1,-1,-1,-1,-1,-1,-1,-1,-1,-1,-1,-1,-1,-1,-1,-1,-1,-1,-1,-1,-1,-1,-1,-1,-1,-1,-1,-1,-1,-1,-1,-1,-1,-1,-1,-1,-1,-1,-1,-1,-1,-1,-1,-1,-1,-1,-1,-1,-1,-1,-1],"split_conditions":[2.6E1,9.042105E-1,1.107193E0,1.4E1,2.4E1,1.18997116E2,2.9E1,1.1E1,3.719E1,3.00215E1,3.712E1,3.534E1,7.9948215E0,3.244096E1,1.1E1,2.4E0,5.0585E0,2.7767857E1,1.451613E0,1.1922417E2,2.3E1,4.9178314E1,8.265865E0,5.59125E0,3.777E1,1.1917069E2,6.0605264E0,5.998036E1,3.779E1,3.3747712E-1,2.6661375E-1,9E0,4.9205356E0,1.4E1,1.9E1,2.898148E0,7.628772E0,4.9998217E0,8.847037E0,8.5885E-1,4.9998217E0,1.5307544E1,8E0,3.3017857E1,2.0745762E1,1.107193E0,3.724E1,5.2355356E0,5.9978573E1,1.0554807E0,9.0482146E-1,5.994107E1,1.5E1,1.0027378E0,8.265865E0,1.18997116E2,6.810105E-1,1.1902116E2,1.2723333E1,-6.0372923E-2,1.09786935E-1,1.1171159E0,-1.8543698E0,-3.5269788E-1,-6.1337084E-2,-2.322552E0,-2.832093E-1,-6.9571964E-2,-2.111216E0,-2.660681E0,-2.4942712E-1,1.5228099E-1,2.7392937E-3,-3.0035582E0,-5.850439E-1,-5.0763167E-2,-3.3568954E-1,6.521373E-2,5.2999395E-1,-2.4251356E0,-9.965576E-2,1.1550828E0,7.07129E-1,5.42787E-1,2.317139E0,-6.152775E-1,1.0150444E-1,1.8343997E-1,6.22062E-1,-3.927446E0,-1.4754462E0,-7.5879183E0,-2.0227222E0,5.871811E-1,1.9159257E0,-6.3175964E-3,-4.8544922E-1,3.7630343E0,5.709795E-1,2.2464356E-1,3.221068E-1,-1.5657893E0,3.5883304E-2,1.091676E-1,3.344531E-1,1.1804329E0,4.3685837E0,2.1498168E0,5.473999E-1,4.172124E-1,-1.3650101E0],"split_indices":[15,4,1,14,15,0,15,15,7,12,7,7,11,12,14,9,6,8,9,0,15,5,11,6,7,0,6,3,7,0,0,15,6,15,15,9,13,6,0,1,6,13,14,10,10,1,7,6,3,1,4,3,14,1,11,0,0,0,6,0,0,0,0,0,0,0,0,0,0,0,0,0,0,0,0,0,0,0,0,0,0,0,0,0,0,0,0,0,0,0,0,0,0,0,0,0,0,0,0,0,0,0,0,0,0,0,0,0,0,0,0],"split_type":[0,0,0,0,0,0,0,0,0,0,0,0,0,0,0,0,0,0,0,0,0,0,0,0,0,0,0,0,0,0,0,0,0,0,0,0,0,0,0,0,0,0,0,0,0,0,0,0,0,0,0,0,0,0,0,0,0,0,0,0,0,0,0,0,0,0,0,0,0,0,0,0,0,0,0,0,0,0,0,0,0,0,0,0,0,0,0,0,0,0,0,0,0,0,0,0,0,0,0,0,0,0,0,0,0,0,0,0,0,0,0],"sum_hessian":[5.1399E4,4.6992E4,4.407E3,3.3197E4,1.3795E4,4.025E3,3.82E2,1.8836E4,1.4361E4,1.3457E4,3.38E2,4.8E1,3.977E3,2.44E2,1.38E2,9.086E3,9.75E3,5.712E3,8.649E3,1.186E3,1.2271E4,1.53E2,1.85E2,3.2E1,1.6E1,8.23E2,3.154E3,6E0,2.38E2,5.7E1,8.1E1,9.065E3,2.1E1,8.673E3,1.077E3,5.686E3,2.6E1,8.647E3,2E0,1.39E2,1.047E3,1.2146E4,1.25E2,1.22E2,3.1E1,1.24E2,6.1E1,2.8E1,4E0,4E0,1.2E1,3.4E1,7.89E2,1.466E3,1.688E3,5E0,1E0,5.8E1,1.8E2,7.077E3,1.988E3,2E0,1.9E1,1.137E3,7.536E3,1.52E2,9.25E2,5.67E3,1.6E1,1.6E1,1E1,4.237E3,4.41E3,1.4E1,1.25E2,7.99E2,2.48E2,1.2017E4,1.29E2,2.8E1,9.7E1,3.8E1,8.4E1,1E1,2.1E1,1.3E1,1.11E2,1.3E1,4.8E1,6E0,2.2E1,3E0,1E0,2E0,2E0,9E0,3E0,1.3E1,2.1E1,3.13E2,4.76E2,8E0,1.458E3,9.47E2,7.41E2,1E0,4E0,1.9E1,3.9E1,1.78E2,2E0],"tree_param":{"num_deleted":"0","num_feature":"16","num_nodes":"111","size_leaf_vector":"1"}},{"base_weights":[1.3222768E-6,-3.9285738E-2,4.1883457E-1,-1.5625876E-1,7.9222284E-2,3.3909148E-1,1.2559801E0,-3.421414E-1,5.212516E-2,7.077628E0,7.619693E-2,-4.566311E0,3.9942974E-1,1.7297349E0,8.737639E-1,-1.5864821E-1,-1.0254306E0,-8.3803195E-1,1.4532416E-1,5.27113E0,6.9285505E-2,-7.2304254E0,8.738125E-1,8.2492334E-1,2.702432E-1,5.8362565E0,8.437393E-1,-3.903301E-1,1.2416364E0,-3.6017117E-1,1.6601928E-1,-8.886511E-1,-4.6106086E0,-2.795132E0,-6.485518E-1,2.0787902E0,5.6577582E-2,5.9490703E-2,5.4012246E0,-8.694557E-2,2.281462E-1,-5.12874E0,-5.392235E0,4.0049744E0,-3.9769685E-1,7.286918E-1,4.571374E0,3.6616325E-2,5.175511E-1,4.2160373E0,9.148319E0,7.221725E-1,2.2147856E0,-9.8119015E-1,-4.5773506E-2,1.3109447E0,-1.5291321E0,-1.9921747E-1,5.8846913E-2,5.223139E-2,-4.5522103E0,-4.2280817E-1,-1.2455422E-1,-5.4627407E-1,-3.647576E0,-2.5983737E0,-7.302507E-1,-3.2917857E-1,-1.1284842E-1,5.5389684E-1,1.5652645E0,2.3158055E-2,-1.2211093E0,-4.447697E-2,1.0331635E-1,-1.17228344E-1,2.7130548E-2,-9.8277315E-2,1.03759415E-1,-4.455229E0,-1.1575686E0,4.697464E-1,1.532741E0,-2.056441E-2,-4.416031E-1,4.8734304E-1,1.9228338E-1,3.2308269E0,1.6433595E-1,-2.6870167E0,1.786055E-2,2.441091E-4,2.3014034E-1,1.433723E0,4.037668E-1,4.5030274E0,1.5987685E0,3.0371684E-1,1.9917004E-1,1.5081483E-1,7.0071626E-1,-4.1153702E-1,-9.6439935E-2,-1.4647855E-1,2.5300932E-1,3.3230558E-1,7.21467E-1],"categories":[],"categories_nodes":[],"categories_segments":[],"categories_sizes":[],"default_left":[0,0,0,0,0,0,0,0,0,0,0,0,0,0,0,0,0,0,0,0,0,0,0,0,0,0,0,0,0,0,0,0,0,0,0,0,0,0,0,0,0,0,0,0,0,0,0,0,0,0,0,0,0,0,0,0,0,0,0,0,0,0,0,0,0,0,0,0,0,0,0,0,0,0,0,0,0,0,0,0,0,0,0,0,0,0,0,0,0,0,0,0,0,0,0,0,0,0,0,0,0,0,0,0,0,0,0],"id":16,"left_children":[1,3,5,7,9,11,13,15,17,-1,19,21,23,25,27,29,31,33,35,37,39,41,43,45,47,49,51,53,55,57,59,61,63,65,67,69,71,73,-1,75,77,79,-1,81,83,85,87,89,91,93,95,97,99,101,103,105,-1,-1,-1,-1,-1,-1,-1,-1,-1,-1,-1,-1,-1,-1,-1,-1,-1,-1,-1,-1,-1,-1,-1,-1,-1,-1,-1,-1,-1,-1,-1,-1,-1,-1,-1,-1,-1,-1,-1,-1,-1,-1,-1,-1,-1,-1,-1,-1,-1,-1,-1],"loss_changes":[8.4578937E2,6.5144073E2,2.9383704E2,9.160994E2,1.6587725E3,1.1934534E3,6.7841E1,1.5670736E3,9.252283E2,0E0,8.3771497E2,7.164806E2,2.1843988E2,6.135969E2,1.0000011E2,6.448523E2,1.2934448E3,3.9015613E2,1.7320682E3,2.0560752E3,5.7859985E2,6.529507E2,6.927489E1,3.305166E2,1.7637656E2,1.22418396E2,2.1901527E1,9.930739E0,7.9610275E1,1.0281885E3,4.7085367E2,6.2809326E2,2.0203462E3,1.758399E2,1.1753375E2,3.1360583E2,8.215985E2,1.4123496E0,0E0,6.3347046E2,7.5630945E2,3.008097E2,0E0,5.4661026E0,4.4960136E0,7.0015594E1,5.676837E2,3.2434283E2,1.9126047E2,2.9120056E1,1.2148755E2,1.5433044E0,1.103344E0,4.197399E0,1.3001642E1,3.402469E1,0E0,0E0,0E0,0E0,0E0,0E0,0E0,0E0,0E0,0E0,0E0,0E0,0E0,0E0,0E0,0E0,0E0,0E0,0E0,0E0,0E0,0E0,0E0,0E0,0E0,0E0,0E0,0E0,0E0,0E0,0E0,0E0,0E0,0E0,0E0,0E0,0E0,0E0,0E0,0E0,0E0,0E0,0E0,0E0,0E0,0E0,0E0,0E0,0E0,0E0,0E0],"parents":[2147483647,0,0,1,1,2,2,3,3,4,4,5,5,6,6,7,7,8,8,10,10,11,11,12,12,13,13,14,14,15,15,16,16,17,17,18,18,19,19,20,20,21,21,22,22,23,23,24,24,25,25,26,26,27,27,28,28,29,29,30,30,31,31,32,32,33,33,34,34,35,35,36,36,37,37,39,39,40,40,41,41,43,43,44,44,45,45,46,46,47,47,48,48,49,49,50,50,51,51,52,52,53,53,54,54,55,55],"right_children":[2,4,6,8,10,12,14,16,18,-1,20,22,24,26,28,30,32,34,36,38,40,42,44,46,48,50,52,54,56,58,60,62,64,66,68,70,72,74,-1,76,78,80,-1,82,84,86,88,90,92,94,96,98,100,102,104,106,-1,-1,-1,-1,-1,-1,-1,-1,-1,-1,-1,-1,-1,-1,-1,-1,-1,-1,-1,-1,-1,-1,-1,-1,-1,-1,-1,-1,-1,-1,-1,-1,-1,-1,-1,-1,-1,-1,-1,-1,-1,-1,-1,-1,-1,-1,-1,-1,-1,-1,-1],"split_conditions":[2.6E1,2.7070175E1,1.107193E0,1.4E1,5.540179E0,1.18997116E2,3.784E1,1.0516842E2,8.285339E0,7.077628E0,7.335714E-1,3.534E1,3.284202E1,1.1904175E2,3.824E1,8E0,4.989286E0,2.382082E1,1.1922083E2,5.03E0,1.2E1,5.59125E0,3.777E1,1.15494804E2,3.805E1,5.2006443E1,2E1,9E0,1.862069E0,7.0491667E0,4.858246E0,1.3E1,1.1E1,7.9948215E0,3.2778557E1,9.021053E-1,5.0504165E0,9.410526E-1,5.4012246E0,3.8679108E1,3.759E1,5.9926315E1,-5.392235E0,1.0554807E0,5.2345142E1,4E0,5.9945614E1,4.649E0,3.4657402E1,3.779E1,3.3715E1,2.6846607E1,1.1957667E2,3.451923E1,8.1441345E0,1.425E1,-1.5291321E0,-1.9921747E-1,5.8846913E-2,5.223139E-2,-4.5522103E0,-4.2280817E-1,-1.2455422E-1,-5.4627407E-1,-3.647576E0,-2.5983737E0,-7.302507E-1,-3.2917857E-1,-1.1284842E-1,5.5389684E-1,1.5652645E0,2.3158055E-2,-1.2211093E0,-4.447697E-2,1.0331635E-1,-1.17228344E-1,2.7130548E-2,-9.8277315E-2,1.03759415E-1,-4.455229E0,-1.1575686E0,4.697464E-1,1.532741E0,-2.056441E-2,-4.416031E-1,4.8734304E-1,1.9228338E-1,3.2308269E0,1.6433595E-1,-2.6870167E0,1.786055E-2,2.441091E-4,2.3014034E-1,1.433723E0,4.037668E-1,4.5030274E0,1.5987685E0,3.0371684E-1,1.9917004E-1,1.5081483E-1,7.0071626E-1,-4.1153702E-1,-9.6439935E-2,-1.4647855E-1,2.5300932E-1,3.3230558E-1,7.21467E-1],"split_indices":[15,8,1,15,13,0,7,2,11,0,1,7,12,0,7,15,6,12,0,6,14,6,7,2,7,5,14,14,9,11,6,15,15,11,12,4,6,4,0,12,7,3,0,1,5,14,3,13,12,7,7,5,0,10,11,11,0,0,0,0,0,0,0,0,0,0,0,0,0,0,0,0,0,0,0,0,0,0,0,0,0,0,0,0,0,0,0,0,0,0,0,0,0,0,0,0,0,0,0,0,0,0,0,0,0,0,0],"split_type":[0,0,0,0,0,0,0,0,0,0,0,0,0,0,0,0,0,0,0,0,0,0,0,0,0,0,0,0,0,0,0,0,0,0,0,0,0,0,0,0,0,0,0,0,0,0,0,0,0,0,0,0,0,0,0,0,0,0,0,0,0,0,0,0,0,0,0,0,0,0,0,0,0,0,0,0,0,0,0,0,0,0,0,0,0,0,0,0,0,0,0,0,0,0,0,0,0,0,0,0,0,0,0,0,0,0,0],"sum_hessian":[5.1399E4,4.6992E4,4.407E3,2.3649E4,2.3343E4,4.025E3,3.82E2,1.2499E4,1.115E4,2E0,2.3341E4,4.8E1,3.977E3,1.69E2,2.13E2,9.854E3,2.645E3,1.056E3,1.0094E4,3E1,2.3311E4,3.2E1,1.6E1,9.25E2,3.052E3,2.9E1,1.4E2,4.8E1,1.65E2,6.08E3,3.774E3,2.549E3,9.6E1,9.2E1,9.64E2,4.42E2,9.652E3,2.2E1,8E0,1.1753E4,1.1558E4,2.8E1,4E0,4E0,1.2E1,9.03E2,2.2E1,1.57E3,1.482E3,2.1E1,8E0,1.3E2,1E1,1.7E1,3.1E1,1.64E2,1E0,3.932E3,2.148E3,3.773E3,1E0,1.213E3,1.336E3,7.1E1,2.5E1,4E0,8.8E1,3.63E2,6.01E2,4.13E2,2.9E1,9.605E3,4.7E1,1.3E1,9E0,4.332E3,7.421E3,2.02E3,9.538E3,2E0,2.6E1,2E0,2E0,1E1,2E0,7.9E1,8.24E2,8E0,1.4E1,3E0,1.567E3,4.83E2,9.99E2,1.7E1,4E0,2E0,6E0,1.9E1,1.11E2,1E0,9E0,1E1,7E0,2.1E1,1E1,1.4E2,2.4E1],"tree_param":{"num_deleted":"0","num_feature":"16","num_nodes":"107","size_leaf_vector":"1"}},{"base_weights":[1.6155911E-5,-1.4168535E-1,6.86045E-2,-1.7831226E-1,5.317783E-1,-5.4766115E-2,2.0979056E-1,1.9899067E-1,-2.4369308E-1,2.0128827E0,1.5590994E-1,8.997161E-2,-3.9202565E-1,1.7040989E-1,8.341949E-1,-9.528875E0,2.1964754E-1,-3.1041324E-1,5.420096E-4,1.3428797E0,4.8552322E0,-5.716151E-1,3.96253E-1,-1.4923178E-1,2.9881993E-1,-2.1660003E-1,-6.1170306E0,1.4302902E-1,1.1035587E0,1.7723017E0,5.6522584E-1,-5.9252703E-1,-3.277065E0,-1.0355903E-1,7.340354E-1,-3.0160782E-1,-2.0644765E0,-7.151338E-2,5.776527E-1,1.5339997E0,-4.2388334E0,1.0710888E1,2.8667526E0,-8.875655E-1,-6.3221715E-2,-3.5117443E0,4.1812122E-1,-2.6250804E-2,-9.4742966E-1,1.3048786E0,1.6417833E-1,1.0166159E-1,-7.2107214E-1,-4.8626256E0,-9.2564125E0,3.3271812E-2,3.4625468E-1,-8.1272256E-1,2.3817484E0,2.5900677E-1,3.0117657E0,4.3105233E-1,7.9478365E-1,6.7798747E-3,-1.4817794E-1,1.3178127E0,2.0023103E-1,-1.0858734E-1,-2.0803828E-2,1.936018E-1,-1.2025168E0,-1.671024E-1,5.894148E-3,6.8183756E-1,5.706172E-2,1.4778914E0,3.7837595E-1,-1.6374539E0,9.578247E-2,6.587219E-1,3.9549944E0,5.8377403E-1,1.1836624E0,3.027359E-1,-2.80123E-1,-3.8324118E-2,4.0677035E-1,-2.8052217E-1,-1.2997627E0,-4.9874574E-1,1.2882224E-1,-2.4862627E-2,8.208605E-1,-7.500964E-1,-1.5925768E-1,1.9395933E-1,1.0921271E0,-2.3734023E-1,7.6774955E-2,3.4372687E-2,-2.1047533E0,-1.8669613E-1,-2.9845543E0,-2.4104612E0,-1.1002221E0,-4.3416505E0,-1.6159695E0,-1.3714171E-2,9.31962E-2,-1.5667306E0,1.1424477E-1,-4.5434687E-1,8.245008E-1,6.542251E-1,5.6621003E0,-3.712995E-2,1.2967353E-1,3.4040534E0,6.119277E-1,1.9376428E-1,1.12390436E-1,2.4232082E-1,7.894478E-2],"categories":[],"categories_nodes":[],"categories_segments":[],"categories_sizes":[],"default_left":[0,0,0,0,0,0,0,0,0,0,0,0,0,0,0,0,0,0,0,0,0,0,0,0,0,0,0,0,0,0,0,0,0,0,0,0,0,0,0,0,0,0,0,0,0,0,0,0,0,0,0,0,0,0,0,0,0,0,0,0,0,0,0,0,0,0,0,0,0,0,0,0,0,0,0,0,0,0,0,0,0,0,0,0,0,0,0,0,0,0,0,0,0,0,0,0,0,0,0,0,0,0,0,0,0,0,0,0,0,0,0,0,0,0,0,0,0,0,0,0,0,0,0],"id":17,"left_children":[1,3,5,7,9,11,13,15,17,19,21,23,25,27,29,31,33,35,37,39,41,43,45,47,49,51,53,55,57,59,61,-1,-1,63,65,67,69,71,73,75,77,79,81,83,85,87,89,91,93,95,97,99,101,103,105,107,109,111,113,115,117,119,121,-1,-1,-1,-1,-1,-1,-1,-1,-1,-1,-1,-1,-1,-1,-1,-1,-1,-1,-1,-1,-1,-1,-1,-1,-1,-1,-1,-1,-1,-1,-1,-1,-1,-1,-1,-1,-1,-1,-1,-1,-1,-1,-1,-1,-1,-1,-1,-1,-1,-1,-1,-1,-1,-1,-1,-1,-1,-1,-1,-1],"loss_changes":[4.9957E2,4.1363516E2,6.033086E2,3.9230032E2,4.8123187E2,9.0236536E2,3.9702686E2,4.7411798E2,2.2085175E2,3.2674707E2,1.2105171E2,6.462413E2,5.5736143E3,3.8808087E2,2.4072241E2,3.1100342E1,3.8994058E2,1.6379211E2,1.2100897E2,1.5905154E2,3.5354163E2,2.757174E1,4.5908028E1,5.918989E2,9.352541E2,8.6497833E2,6.0476855E2,3.292843E2,1.0625135E3,3.9873865E2,2.2634644E1,0E0,0E0,7.097784E1,2.1758295E2,1.4845679E2,2.8177197E2,1.1450626E2,2.1170654E2,1.2239493E2,2.9532219E1,1.3947748E2,1.8150497E1,1.022625E1,6.3083606E0,2.2935295E0,1.287767E1,8.1769226E2,5.194185E2,1.2507905E3,5.34097E2,3.0449313E2,1.8928032E3,4.255161E2,8.5051685E2,2.1005798E2,9.983567E2,4.3899408E2,8.2070056E2,6.485662E0,9.247604E2,5.490837E0,1.6741943E0,0E0,0E0,0E0,0E0,0E0,0E0,0E0,0E0,0E0,0E0,0E0,0E0,0E0,0E0,0E0,0E0,0E0,0E0,0E0,0E0,0E0,0E0,0E0,0E0,0E0,0E0,0E0,0E0,0E0,0E0,0E0,0E0,0E0,0E0,0E0,0E0,0E0,0E0,0E0,0E0,0E0,0E0,0E0,0E0,0E0,0E0,0E0,0E0,0E0,0E0,0E0,0E0,0E0,0E0,0E0,0E0,0E0,0E0,0E0,0E0],"parents":[2147483647,0,0,1,1,2,2,3,3,4,4,5,5,6,6,7,7,8,8,9,9,10,10,11,11,12,12,13,13,14,14,15,15,16,16,17,17,18,18,19,19,20,20,21,21,22,22,23,23,24,24,25,25,26,26,27,27,28,28,29,29,30,30,33,33,34,34,35,35,36,36,37,37,38,38,39,39,40,40,41,41,42,42,43,43,44,44,45,45,46,46,47,47,48,48,49,49,50,50,51,51,52,52,53,53,54,54,55,55,56,56,57,57,58,58,59,59,60,60,61,61,62,62],"right_children":[2,4,6,8,10,12,14,16,18,20,22,24,26,28,30,32,34,36,38,40,42,44,46,48,50,52,54,56,58,60,62,-1,-1,64,66,68,70,72,74,76,78,80,82,84,86,88,90,92,94,96,98,100,102,104,106,108,110,112,114,116,118,120,122,-1,-1,-1,-1,-1,-1,-1,-1,-1,-1,-1,-1,-1,-1,-1,-1,-1,-1,-1,-1,-1,-1,-1,-1,-1,-1,-1,-1,-1,-1,-1,-1,-1,-1,-1,-1,-1,-1,-1,-1,-1,-1,-1,-1,-1,-1,-1,-1,-1,-1,-1,-1,-1,-1,-1,-1,-1,-1,-1,-1],"split_conditions":[8E0,2.7E1,1.4E1,6E0,3.779E1,1E1,9.410526E-1,8.4267855E-1,9.2071426E-1,6.1285577E0,8.166442E0,3.4260384E1,1.02375E0,9.4736844E-1,3.759E1,5.067917E0,4E0,3.9291607E1,5.9036536E0,1.6071428E-1,3.16115E1,3.811E1,1.18997116E2,4.9998217E0,3.8635086E1,9.993729E-1,3.83375E1,1.8E1,2.0745762E1,4.9998217E0,1.6E1,-5.9252703E-1,-3.277065E0,1.1147857E2,4.989286E0,2.4E1,1.0487307E0,1.2E1,3.476964E1,5.991083E1,1.1903269E2,6.726316E0,1.0591538E0,1.1143509E2,3.6359108E1,1.1476667E0,5.99E1,8.6739165E-1,2.6850569E1,6E0,2E0,1.4513214E1,4.989286E0,1.1588076E0,3.779E1,2.6E1,1.18997116E2,1.08135086E2,3.852404E1,2.5677856E1,9.457143E-1,3.825E1,1.0765357E2,6.7798747E-3,-1.4817794E-1,1.3178127E0,2.0023103E-1,-1.0858734E-1,-2.0803828E-2,1.936018E-1,-1.2025168E0,-1.671024E-1,5.894148E-3,6.8183756E-1,5.706172E-2,1.4778914E0,3.7837595E-1,-1.6374539E0,9.578247E-2,6.587219E-1,3.9549944E0,5.8377403E-1,1.1836624E0,3.027359E-1,-2.80123E-1,-3.8324118E-2,4.0677035E-1,-2.8052217E-1,-1.2997627E0,-4.9874574E-1,1.2882224E-1,-2.4862627E-2,8.208605E-1,-7.500964E-1,-1.5925768E-1,1.9395933E-1,1.0921271E0,-2.3734023E-1,7.6774955E-2,3.4372687E-2,-2.1047533E0,-1.8669613E-1,-2.9845543E0,-2.4104612E0,-1.1002221E0,-4.3416505E0,-1.6159695E0,-1.3714171E-2,9.31962E-2,-1.5667306E0,1.1424477E-1,-4.5434687E-1,8.245008E-1,6.542251E-1,5.6621003E0,-3.712995E-2,1.2967353E-1,3.4040534E0,6.119277E-1,1.9376428E-1,1.12390436E-1,2.4232082E-1,7.894478E-2],"split_indices":[14,15,15,15,7,15,4,1,4,6,11,12,1,9,7,6,15,7,6,9,12,7,0,6,12,1,12,14,10,6,14,0,0,2,6,15,1,15,12,3,0,13,1,2,12,1,3,1,12,15,15,11,6,1,7,15,0,2,7,5,4,7,2,0,0,0,0,0,0,0,0,0,0,0,0,0,0,0,0,0,0,0,0,0,0,0,0,0,0,0,0,0,0,0,0,0,0,0,0,0,0,0,0,0,0,0,0,0,0,0,0,0,0,0,0,0,0,0,0,0,0,0,0],"split_type":[0,0,0,0,0,0,0,0,0,0,0,0,0,0,0,0,0,0,0,0,0,0,0,0,0,0,0,0,0,0,0,0,0,0,0,0,0,0,0,0,0,0,0,0,0,0,0,0,0,0,0,0,0,0,0,0,0,0,0,0,0,0,0,0,0,0,0,0,0,0,0,0,0,0,0,0,0,0,0,0,0,0,0,0,0,0,0,0,0,0,0,0,0,0,0,0,0,0,0,0,0,0,0,0,0,0,0,0,0,0,0,0,0,0,0,0,0,0,0,0,0,0,0],"sum_hessian":[5.1399E4,1.6764E4,3.4635E4,1.59E4,8.64E2,1.8484E4,1.6151E4,2.348E3,1.3552E4,1.74E2,6.9E2,1.2934E4,5.55E3,1.5194E4,9.57E2,4E0,2.344E3,1.0644E4,2.908E3,1.42E2,3.2E1,1.71E2,5.19E2,6.029E3,6.905E3,5.386E3,1.64E2,1.4762E4,4.32E2,2.12E2,7.45E2,1E0,3E0,1.44E3,9.04E2,1.0592E4,5.2E1,2.586E3,3.22E2,1.38E2,4E0,7E0,2.5E1,1.05E2,6.6E1,2E0,5.17E2,5.225E3,8.04E2,8.14E2,6.091E3,3.303E3,2.083E3,1.19E2,4.5E1,9.586E3,5.176E3,1.73E2,2.59E2,9.6E1,1.16E2,4.72E2,2.73E2,1.089E3,3.51E2,1.5E1,8.89E2,8.407E3,2.185E3,2.2E1,3E1,4.08E2,2.178E3,5.9E1,2.63E2,9E0,1.29E2,3E0,1E0,2E0,5E0,1.5E1,1E1,2E0,1.03E2,6.4E1,2E0,1E0,1E0,2E0,5.15E2,5.121E3,1.04E2,1.69E2,6.35E2,6.36E2,1.78E2,5.33E2,5.558E3,3.298E3,5E0,2.062E3,2.1E1,3.1E1,8.8E1,1.8E1,2.7E1,7.462E3,2.124E3,3.1E1,5.145E3,1.45E2,2.8E1,2.57E2,2E0,3E1,6.6E1,1.1E1,1.05E2,9.6E1,3.76E2,2.66E2,7E0],"tree_param":{"num_deleted":"0","num_feature":"16","num_nodes":"123","size_leaf_vector":"1"}},{"base_weights":[-2.0974156E-5,-1.2805263E-2,5.4219913E-1,-1.6353567E-1,2.579854E-2,1.7582395E0,4.109965E-1,-1.9841978E-1,5.09257E-1,-5.373026E-2,1.150349E-1,-1.8980398E0,2.4118598E0,7.8062373E-1,9.143807E-2,-2.78163E-1,1.3828429E-3,2.0046923E0,3.107337E-1,-3.8759645E-2,-2.3318038E0,6.1453637E-2,3.2080862E-1,-3.5650969E0,4.8279343E0,8.2418165E0,2.20455E0,5.685128E-1,1.4405004E0,-6.222412E0,2.4855989E-1,-2.0529142E-1,-5.246582E-1,-2.083809E0,6.385883E-3,9.9628264E-1,9.353409E0,9.1187465E-1,1.6706283E-1,-2.99343E-2,-1.9604424E0,1.1647182E0,-3.3557003E0,1.7122991E-1,-2.7878842E-1,2.2183585E-1,9.579356E-1,-4.8480224E-2,-4.8394594E0,3.9656985E-1,1.6667938E0,3.875146E0,-1.6632843E-1,4.0830636E-1,2.558695E0,1.675284E0,4.134526E-1,1.9450611E0,5.5634224E-1,-3.2440133E0,-2.4703894E0,-2.6566622E-1,7.823799E-1,-7.8369804E-2,4.6607062E-2,-1.4085418E-1,-1.22891E0,-3.5678071E-3,3.6793092E-1,8.982341E-1,-1.22508004E-1,3.4925053E0,7.265442E-1,1.8464983E-1,8.629981E-1,5.6378454E-2,-1.1047989E0,-1.0293924E-1,7.338428E-3,-1.1701914E-1,-1.3041214E0,3.9186862E-1,-4.5723725E-2,-7.5295025E-1,-2.6386182E0,1.5311646E-2,9.9306025E-2,-1.9276938E0,-1.6556136E-2,-5.836894E-1,7.671826E-2,7.146888E-2,5.7980406E-1,-1.2670441E-1,1.02464296E-1,-4.263977E-1,-1.632336E0,2.6701266E-1,-7.34705E-2,2.5812426E-1,8.285555E-1,3.7670955E-1,1.4594239E0,8.546532E-2,4.7091773E-1,2.1211015E-1,6.4310884E-1,2.4499835E-1,-1.7270203E-1,-2.590599E-1,-9.3896866E-1,-3.2540765E-1,2.5302956E-2,2.2952745E0,2.1129648E-1],"categories":[],"categories_nodes":[],"categories_segments":[],"categories_sizes":[],"default_left":[0,0,0,0,0,0,0,0,0,0,0,0,0,0,0,0,0,0,0,0,0,0,0,0,0,0,0,0,0,0,0,0,0,0,0,0,0,0,0,0,0,0,0,0,0,0,0,0,0,0,0,0,0,0,0,0,0,0,0,0,0,0,0,0,0,0,0,0,0,0,0,0,0,0,0,0,0,0,0,0,0,0,0,0,0,0,0,0,0,0,0,0,0,0,0,0,0,0,0,0,0,0,0,0,0,0,0,0,0,0,0,0,0,0,0],"id":18,"left_children":[1,3,5,7,9,11,13,15,17,19,21,23,25,27,29,31,33,35,37,39,41,43,45,47,49,51,53,55,57,59,61,63,65,-1,67,69,71,73,75,77,79,81,83,85,87,89,91,93,95,-1,-1,-1,-1,97,99,101,103,105,107,-1,109,111,113,-1,-1,-1,-1,-1,-1,-1,-1,-1,-1,-1,-1,-1,-1,-1,-1,-1,-1,-1,-1,-1,-1,-1,-1,-1,-1,-1,-1,-1,-1,-1,-1,-1,-1,-1,-1,-1,-1,-1,-1,-1,-1,-1,-1,-1,-1,-1,-1,-1,-1,-1,-1],"loss_changes":[3.5630652E2,2.9220523E2,1.8818192E2,2.4040808E2,2.837316E2,2.7940692E2,1.2631433E2,1.5510721E2,1.4930084E2,7.208718E2,2.0770291E2,2.1903853E2,1.00273926E2,6.860474E1,5.7197174E2,1.24875305E2,9.660259E1,4.2790186E2,3.845346E1,3.5614194E2,4.9795886E2,5.5840045E2,2.4521005E2,6.698703E1,2.8657608E0,1.3053783E2,6.0023804E1,6.400665E1,5.245125E1,2.1444238E2,1.544792E2,1.0842131E2,3.1065106E2,0E0,6.1943855E1,1.4995331E2,8.2835754E1,4.8308403E1,2.9770035E1,3.5620862E2,3.5810382E2,6.163494E0,4.7025903E2,2.1706116E2,5.012247E3,2.4805461E2,3.664395E2,8.7334627E-1,1.4888489E1,0E0,0E0,0E0,0E0,5.5674257E0,2.5225037E1,5.5450943E1,4.8907925E1,1.717392E1,1.3730957E1,0E0,6.834816E0,8.236484E1,1.4258769E2,0E0,0E0,0E0,0E0,0E0,0E0,0E0,0E0,0E0,0E0,0E0,0E0,0E0,0E0,0E0,0E0,0E0,0E0,0E0,0E0,0E0,0E0,0E0,0E0,0E0,0E0,0E0,0E0,0E0,0E0,0E0,0E0,0E0,0E0,0E0,0E0,0E0,0E0,0E0,0E0,0E0,0E0,0E0,0E0,0E0,0E0,0E0,0E0,0E0,0E0,0E0,0E0],"parents":[2147483647,0,0,1,1,2,2,3,3,4,4,5,5,6,6,7,7,8,8,9,9,10,10,11,11,12,12,13,13,14,14,15,15,16,16,17,17,18,18,19,19,20,20,21,21,22,22,23,23,24,24,25,25,26,26,27,27,28,28,29,29,30,30,31,31,32,32,34,34,35,35,36,36,37,37,38,38,39,39,40,40,41,41,42,42,43,43,44,44,45,45,46,46,47,47,48,48,53,53,54,54,55,55,56,56,57,57,58,58,60,60,61,61,62,62],"right_children":[2,4,6,8,10,12,14,16,18,20,22,24,26,28,30,32,34,36,38,40,42,44,46,48,50,52,54,56,58,60,62,64,66,-1,68,70,72,74,76,78,80,82,84,86,88,90,92,94,96,-1,-1,-1,-1,98,100,102,104,106,108,-1,110,112,114,-1,-1,-1,-1,-1,-1,-1,-1,-1,-1,-1,-1,-1,-1,-1,-1,-1,-1,-1,-1,-1,-1,-1,-1,-1,-1,-1,-1,-1,-1,-1,-1,-1,-1,-1,-1,-1,-1,-1,-1,-1,-1,-1,-1,-1,-1,-1,-1,-1,-1,-1,-1],"split_conditions":[1.3263158E1,5E0,3.6943035E1,2.7E1,1.4E1,1.4241964E1,1E1,3.8819107E1,2.5894737E1,1.1846429E0,9.0732145E-1,1.19875E2,2.2937143E1,2.7092321E1,1.1E1,3.4017544E1,4.649E0,6.726316E0,3.778E1,6.699029E-1,9E0,5.0504165E0,2.4E1,7E0,8.994643E-1,1.19908775E2,3.764E1,3.8635086E1,3.784E1,1.3660357E1,1.1E1,3.7998215E1,3.566346E1,-2.083809E0,1.05E0,8.9839286E-1,5.9975437E1,6.3648334E0,1.1588076E0,8.9701754E-1,7.3551664E0,1.20625E0,3.90775E1,1.6E1,1.8E1,1.4063571E1,8.246154E0,1.3155E2,5.994737E1,3.9656985E-1,1.6667938E0,3.875146E0,-1.6632843E-1,1.3205263E2,3.460643E1,8E0,9E0,3.898375E1,2.7298773E1,-3.2440133E0,3.783E1,3.774E1,1.4047193E1,-7.8369804E-2,4.6607062E-2,-1.4085418E-1,-1.22891E0,-3.5678071E-3,3.6793092E-1,8.982341E-1,-1.22508004E-1,3.4925053E0,7.265442E-1,1.8464983E-1,8.629981E-1,5.6378454E-2,-1.1047989E0,-1.0293924E-1,7.338428E-3,-1.1701914E-1,-1.3041214E0,3.9186862E-1,-4.5723725E-2,-7.5295025E-1,-2.6386182E0,1.5311646E-2,9.9306025E-2,-1.9276938E0,-1.6556136E-2,-5.836894E-1,7.671826E-2,7.146888E-2,5.7980406E-1,-1.2670441E-1,1.02464296E-1,-4.263977E-1,-1.632336E0,2.6701266E-1,-7.34705E-2,2.5812426E-1,8.285555E-1,3.7670955E-1,1.4594239E0,8.546532E-2,4.7091773E-1,2.1211015E-1,6.4310884E-1,2.4499835E-1,-1.7270203E-1,-2.590599E-1,-9.3896866E-1,-3.2540765E-1,2.5302956E-2,2.2952745E0,2.1129648E-1],"split_indices":[6,14,12,15,15,11,15,12,8,1,4,0,5,5,15,10,13,13,7,9,15,6,15,15,1,0,7,12,7,6,14,12,8,0,1,4,3,6,1,4,11,1,12,14,15,11,11,2,3,0,0,0,0,2,12,15,15,12,5,0,7,7,11,0,0,0,0,0,0,0,0,0,0,0,0,0,0,0,0,0,0,0,0,0,0,0,0,0,0,0,0,0,0,0,0,0,0,0,0,0,0,0,0,0,0,0,0,0,0,0,0,0,0,0,0],"split_type":[0,0,0,0,0,0,0,0,0,0,0,0,0,0,0,0,0,0,0,0,0,0,0,0,0,0,0,0,0,0,0,0,0,0,0,0,0,0,0,0,0,0,0,0,0,0,0,0,0,0,0,0,0,0,0,0,0,0,0,0,0,0,0,0,0,0,0,0,0,0,0,0,0,0,0,0,0,0,0,0,0,0,0,0,0,0,0,0,0,0,0,0,0,0,0,0,0,0,0,0,0,0,0,0,0,0,0,0,0,0,0,0,0,0,0],"sum_hessian":[5.1399E4,5.0216E4,1.183E3,1.0238E4,3.9978E4,1.14E2,1.069E3,9.734E3,5.04E2,2.1139E4,1.8839E4,1.7E1,9.7E1,4.95E2,5.74E2,6.957E3,2.777E3,5.8E1,4.46E2,2.1002E4,1.37E2,1.4948E4,3.891E3,1.4E1,3E0,2E0,9.5E1,3.76E2,1.19E2,1.3E1,5.61E2,5.371E3,1.586E3,1E0,2.776E3,5.2E1,6E0,8.5E1,3.61E2,2.0907E4,9.5E1,3.1E1,1.06E2,1.1302E4,3.646E3,3.369E3,5.22E2,4E0,1E1,1E0,2E0,1E0,1E0,1.6E1,7.9E1,4.5E1,3.31E2,7.5E1,4.4E1,5E0,8E0,2.86E2,2.75E2,4.65E3,7.21E2,1.563E3,2.3E1,2.736E3,4E1,2.1E1,3.1E1,4E0,2E0,7.5E1,1E1,3.6E2,1E0,3.093E3,1.7814E4,5.8E1,3.7E1,2.8E1,3E0,9.3E1,1.3E1,6.451E3,4.851E3,1.27E2,3.519E3,5.1E1,3.318E3,3.01E2,2.21E2,2E0,2E0,2E0,8E0,9E0,7E0,9E0,7E1,4.1E1,4E0,2.99E2,3.2E1,1.1E1,6.4E1,3.6E1,8E0,3E0,5E0,8.5E1,2.01E2,2E0,2.73E2],"tree_param":{"num_deleted":"0","num_feature":"16","num_nodes":"115","size_leaf_vector":"1"}},{"base_weights":[1.9897283E-5,-2.0494689E-1,1.7438287E-2,-3.0630204E-1,4.5431107E-2,-1.1423737E-3,2.1663594E-1,-4.0870407E-1,-1.6918257E-1,-2.0616175E-1,3.021956E-1,-1.1604077E-2,3.8573077E-1,7.166903E-2,4.006329E-1,-3.429535E-1,-1.0189786E0,1.1790248E0,-2.0859419E-1,-3.062659E-1,8.082131E-1,1.9346299E0,7.2029303E-3,-6.710075E-2,6.2424872E-2,4.2658865E-1,-2.1870465E0,8.852691E-2,-1.2651828E1,1.9789217E0,2.9353446E-1,-3.5296085E-1,3.4430084E0,-8.082504E0,-6.8915075E-1,-1.574345E0,2.3433466E0,4.1013154E-1,-2.680594E-1,-6.304916E-1,-1.1236286E-1,1.6434327E0,5.176661E-1,4.7165996E-1,5.816231E0,2.144117E0,-2.3846036E-2,-2.2980325E-2,-4.9523297E-1,1.3612856E0,3.4461237E-2,5.81596E0,4.0697753E-1,-5.156819E0,-2.7242532E-1,-2.5501456E0,1.2636854E-1,-6.971315E0,1.2779921E0,8.558011E-1,3.1901867E0,-3.3808148E-1,3.7683722E-1,-1.275975E-1,-3.5758324E-2,2.3901215E-1,1.707287E0,-9.506378E-2,-2.7971888E0,-9.918944E-1,-1.2675355E-1,-4.934395E-1,-1.3047181E-1,4.090107E-1,1.1030928E0,1.3617618E-1,-8.0328375E-2,-1.1620111E-1,5.178402E-3,-1.4836271E0,-1.4146449E-1,1.23066984E-1,-6.154753E-2,9.965179E-2,1.0124512E0,6.659127E-2,7.5264066E-1,2.6633532E0,8.985699E-1,1.0025024E-2,1.1156365E0,-6.676908E-1,2.5749975E-3,-5.9503842E-2,1.2418065E-2,-3.7518796E-1,-3.6813337E-2,5.447672E-1,-2.1619117E-1,1.2810706E-2,-2.5905666E-1,3.293873E0,1.3046876E-1,-3.4862357E-1,1.4210337E-1,-2.1498185E-1,-1.7332261E0,-2.8657228E-1,-1.2101442E-2,-2.1090415E0,-5.827017E-2,7.959726E-2,-8.442255E-2,-1.8768084E0,3.2471249E-1,1.7360247E0,8.041027E-1,-1.7188068E-1,4.205979E-3,7.4871294E-2,1.6722015E-1],"categories":[],"categories_nodes":[],"categories_segments":[],"categories_sizes":[],"default_left":[0,0,0,0,0,0,0,0,0,0,0,0,0,0,0,0,0,0,0,0,0,0,0,0,0,0,0,0,0,0,0,0,0,0,0,0,0,0,0,0,0,0,0,0,0,0,0,0,0,0,0,0,0,0,0,0,0,0,0,0,0,0,0,0,0,0,0,0,0,0,0,0,0,0,0,0,0,0,0,0,0,0,0,0,0,0,0,0,0,0,0,0,0,0,0,0,0,0,0,0,0,0,0,0,0,0,0,0,0,0,0,0,0,0,0,0,0,0,0,0,0],"id":19,"left_children":[1,3,5,7,9,11,13,15,17,19,21,23,25,27,29,31,33,35,37,39,41,43,45,47,49,51,53,55,57,59,61,63,65,67,69,71,73,75,77,79,81,-1,83,85,87,89,91,93,95,97,99,101,103,105,107,109,111,-1,-1,113,115,117,119,-1,-1,-1,-1,-1,-1,-1,-1,-1,-1,-1,-1,-1,-1,-1,-1,-1,-1,-1,-1,-1,-1,-1,-1,-1,-1,-1,-1,-1,-1,-1,-1,-1,-1,-1,-1,-1,-1,-1,-1,-1,-1,-1,-1,-1,-1,-1,-1,-1,-1,-1,-1,-1,-1,-1,-1,-1,-1],"loss_changes":[1.8351143E2,1.02182144E2,1.7534575E2,4.017325E1,7.5063034E1,1.7539243E2,1.0778546E2,6.545703E1,6.544265E1,5.9853333E1,2.7688086E2,1.7335236E2,1.2087286E2,4.862992E2,3.0046548E2,5.7364548E1,3.6485974E2,1.1589253E2,4.4003574E1,3.3563725E1,6.907586E1,4.969793E2,3.2429432E1,4.555248E2,6.56598E2,1.16430435E2,1.0094294E2,2.2598705E2,6.360714E2,1.5099469E2,8.79424E1,2.496849E1,1.9260963E1,6.4530304E1,1.05372215E2,1.6771698E-1,2.7660095E1,3.2383938E0,3.7067947E1,1.3483398E2,1.6378036E1,0E0,2.5908285E1,3.250551E1,1.8069202E2,2.3141342E1,3.4435177E1,2.468304E2,6.33842E2,3.6190698E2,1.3101624E2,1.0636803E2,1.1787053E2,1.5149078E1,1.8631401E0,3.3637744E2,1.2637629E2,0E0,0E0,1.0345263E2,5.597699E1,1.6133062E1,3.3755844E1,0E0,0E0,0E0,0E0,0E0,0E0,0E0,0E0,0E0,0E0,0E0,0E0,0E0,0E0,0E0,0E0,0E0,0E0,0E0,0E0,0E0,0E0,0E0,0E0,0E0,0E0,0E0,0E0,0E0,0E0,0E0,0E0,0E0,0E0,0E0,0E0,0E0,0E0,0E0,0E0,0E0,0E0,0E0,0E0,0E0,0E0,0E0,0E0,0E0,0E0,0E0,0E0,0E0,0E0,0E0,0E0,0E0,0E0],"parents":[2147483647,0,0,1,1,2,2,3,3,4,4,5,5,6,6,7,7,8,8,9,9,10,10,11,11,12,12,13,13,14,14,15,15,16,16,17,17,18,18,19,19,20,20,21,21,22,22,23,23,24,24,25,25,26,26,27,27,28,28,29,29,30,30,31,31,32,32,33,33,34,34,35,35,36,36,37,37,38,38,39,39,40,40,42,42,43,43,44,44,45,45,46,46,47,47,48,48,49,49,50,50,51,51,52,52,53,53,54,54,55,55,56,56,59,59,60,60,61,61,62,62],"right_children":[2,4,6,8,10,12,14,16,18,20,22,24,26,28,30,32,34,36,38,40,42,44,46,48,50,52,54,56,58,60,62,64,66,68,70,72,74,76,78,80,82,-1,84,86,88,90,92,94,96,98,100,102,104,106,108,110,112,-1,-1,114,116,118,120,-1,-1,-1,-1,-1,-1,-1,-1,-1,-1,-1,-1,-1,-1,-1,-1,-1,-1,-1,-1,-1,-1,-1,-1,-1,-1,-1,-1,-1,-1,-1,-1,-1,-1,-1,-1,-1,-1,-1,-1,-1,-1,-1,-1,-1,-1,-1,-1,-1,-1,-1,-1,-1,-1,-1,-1,-1,-1],"split_conditions":[2E0,9.008654E-1,2.6E1,3.7969475E1,3.5482418E1,1.3263158E1,6.0605264E0,5.067917E0,3.3607143E1,9.9995E0,1.4220179E1,3.804625E1,4.0575966E1,9.179464E0,3.779E1,5.0392857E0,3.73E1,8.9719296E-1,4.4822807E0,8E0,3.2789474E1,3.65E1,5.01875E0,1.1159286E2,1.4173166E1,2.2937143E1,9.2561406E-1,1.18997116E2,4.495E0,5.149071E1,8.1441345E0,2E1,1.19933334E2,5.9926315E1,2.6846607E1,3.35E1,8.9980584E-1,2.6679464E1,3.783E1,1.1920167E2,3.418E1,1.6434327E0,1.380807E1,3.6486607E1,5.1735716E0,1.1994035E2,5.111579E0,8E0,2.4E1,3.9269108E1,6.666667E-2,1.19908775E2,3.718E1,3.787E1,1.198E2,9.0732145E-1,3.779E1,-6.971315E0,1.2779921E0,3.534E1,3.453E1,3.4501427E1,9E0,-1.275975E-1,-3.5758324E-2,2.3901215E-1,1.707287E0,-9.506378E-2,-2.7971888E0,-9.918944E-1,-1.2675355E-1,-4.934395E-1,-1.3047181E-1,4.090107E-1,1.1030928E0,1.3617618E-1,-8.0328375E-2,-1.1620111E-1,5.178402E-3,-1.4836271E0,-1.4146449E-1,1.23066984E-1,-6.154753E-2,9.965179E-2,1.0124512E0,6.659127E-2,7.5264066E-1,2.6633532E0,8.985699E-1,1.0025024E-2,1.1156365E0,-6.676908E-1,2.5749975E-3,-5.9503842E-2,1.2418065E-2,-3.7518796E-1,-3.6813337E-2,5.447672E-1,-2.1619117E-1,1.2810706E-2,-2.5905666E-1,3.293873E0,1.3046876E-1,-3.4862357E-1,1.4210337E-1,-2.1498185E-1,-1.7332261E0,-2.8657228E-1,-1.2101442E-2,-2.1090415E0,-5.827017E-2,7.959726E-2,-8.442255E-2,-1.8768084E0,3.2471249E-1,1.7360247E0,8.041027E-1,-1.7188068E-1,4.205979E-3,7.4871294E-2,1.6722015E-1],"split_indices":[14,4,15,12,12,6,6,6,10,6,11,12,12,13,7,6,7,4,6,15,10,7,6,2,11,5,4,0,6,5,11,15,0,3,5,10,4,5,7,0,7,0,13,7,6,0,6,15,15,12,9,0,7,7,0,4,7,0,0,7,7,12,14,0,0,0,0,0,0,0,0,0,0,0,0,0,0,0,0,0,0,0,0,0,0,0,0,0,0,0,0,0,0,0,0,0,0,0,0,0,0,0,0,0,0,0,0,0,0,0,0,0,0,0,0,0,0,0,0,0,0],"split_type":[0,0,0,0,0,0,0,0,0,0,0,0,0,0,0,0,0,0,0,0,0,0,0,0,0,0,0,0,0,0,0,0,0,0,0,0,0,0,0,0,0,0,0,0,0,0,0,0,0,0,0,0,0,0,0,0,0,0,0,0,0,0,0,0,0,0,0,0,0,0,0,0,0,0,0,0,0,0,0,0,0,0,0,0,0,0,0,0,0,0,0,0,0,0,0,0,0,0,0,0,0,0,0,0,0,0,0,0,0,0,0,0,0,0,0,0,0,0,0,0,0],"sum_hessian":[5.1399E4,4.025E3,4.7374E4,2.865E3,1.16E3,4.3333E4,4.041E3,1.639E3,1.226E3,5.86E2,5.74E2,4.2193E4,1.14E3,2.261E3,1.78E3,1.481E3,1.58E2,3.4E1,1.192E3,5.34E2,5.2E1,8.7E1,4.87E2,2.4115E4,1.8078E4,1.123E3,1.7E1,2.259E3,2E0,1.12E2,1.668E3,1.478E3,3E0,6E0,1.52E2,1E1,2.4E1,1.04E2,1.088E3,1.99E2,3.35E2,2E0,5E1,6.4E1,2.3E1,6E0,4.81E2,2.1863E4,2.252E3,3.8E2,1.7698E4,3E0,1.12E3,6E0,1.1E1,3.1E1,2.228E3,1E0,1E0,5.9E1,5.3E1,1.94E2,1.474E3,1.128E3,3.5E2,2E0,1E0,1E0,5E0,1.3E1,1.39E2,9E0,1E0,1.5E1,9E0,9.8E1,6E0,7.67E2,3.21E2,6E0,1.93E2,5E1,2.85E2,4.8E1,2E0,5.8E1,6E0,1E1,1.3E1,3E0,3E0,6E0,4.75E2,5.87E3,1.5993E4,7.43E2,1.509E3,3.12E2,6.8E1,1.7538E4,1.6E2,1E0,2E0,4.5E1,1.075E3,1E0,5E0,2E0,9E0,1E1,2.1E1,1.662E3,5.66E2,1E0,5.8E1,7E0,4.6E1,1.16E2,7.8E1,8.66E2,6.08E2],"tree_param":{"num_deleted":"0","num_feature":"16","num_nodes":"121","size_leaf_vector":"1"}},{"base_weights":[-1.861371E-5,-4.8955373E-2,5.7755914E-2,1.7465253E-1,-8.47347E-2,-1.161898E0,6.913792E-2,7.098673E-2,8.303417E-1,-5.48286E-1,-5.247183E-2,-1.2244366E0,6.3279724E-1,-3.269856E-2,1.6446829E-1,2.2370596E-1,-3.9565912E-1,7.557393E-1,1.7387121E0,-3.0489135E-1,-1.1041213E0,9.031083E-2,-9.802553E-2,-3.7475252E-1,-1.9832613E-1,4.7828674E-2,2.2920457E-1,1.1352577E-1,-5.646775E-1,1.3193877E-1,8.8341707E-1,-1.708056E-1,4.6087614E-1,1.645503E0,-4.7008705E-1,1.6383673E0,6.575117E-1,7.489655E-1,4.38782E-1,-3.955822E-1,-5.9107984E-3,-1.2287243E-1,-1.1843083E0,9.464809E-2,-3.5159066E0,-1.84871E-1,3.4834325E-2,1.7335789E-1,-5.917591E-1,-4.0780038E-1,-4.0076866E0,-1.646926E0,1.4153355E-1,1.0882704E0,-2.8581715E-3,1.05449535E-1,-1.4495608E-1,2.5076142E-1,7.09444E-2,2.4215782E-1,3.7677293E0,-1.8471621E-1,1.2789546E-1,3.593029E-1,5.211042E-1,1.3070248E-1,2.761285E-1,-3.9470783E-1,-1.0353817E-1,6.521979E-1,-4.2639047E-2,-5.3163532E-2,-6.282807E-3,-3.6219394E-1,6.1796382E-2,2.8224096E-3,1.8159224E-1,-4.1489992E-2,-2.7812827E-1,-6.0228356E-3,5.982431E-2,4.5764536E-2,3.7440616E-1,-6.466032E-1,-1.195548E-1,-3.2046324E-1,-2.6229264E-2,-1.0828959E0,-3.0119927E0,-5.9256177E0,-3.078949E-1,3.539138E-2,2.3470387E-1,2.896449E-1,1.0560915E0,6.004374E-2,-2.9845872E0],"categories":[],"categories_nodes":[],"categories_segments":[],"categories_sizes":[],"default_left":[0,0,0,0,0,0,0,0,0,0,0,0,0,0,0,0,0,0,0,0,0,0,0,0,0,0,0,0,0,0,0,0,0,0,0,0,0,0,0,0,0,0,0,0,0,0,0,0,0,0,0,0,0,0,0,0,0,0,0,0,0,0,0,0,0,0,0,0,0,0,0,0,0,0,0,0,0,0,0,0,0,0,0,0,0,0,0,0,0,0,0,0,0,0,0,0,0],"id":20,"left_children":[1,3,5,7,9,11,13,15,17,19,21,23,25,27,29,31,33,35,37,39,41,43,45,-1,-1,-1,-1,47,49,51,53,55,57,59,61,63,65,-1,-1,67,69,71,73,75,-1,77,79,81,83,85,87,89,91,93,95,-1,-1,-1,-1,-1,-1,-1,-1,-1,-1,-1,-1,-1,-1,-1,-1,-1,-1,-1,-1,-1,-1,-1,-1,-1,-1,-1,-1,-1,-1,-1,-1,-1,-1,-1,-1,-1,-1,-1,-1,-1,-1],"loss_changes":[1.4532594E2,2.2266183E2,3.2730945E2,2.608876E2,3.587685E2,2.5242706E1,2.2673828E2,2.3640588E2,3.419571E1,2.1084695E2,1.4590631E2,2.114746E0,3.751092E-1,8.785269E2,2.820015E2,2.3390108E2,1.2504361E2,4.1058167E1,4.5090256E0,2.9471458E1,3.7229065E1,2.7904605E2,1.9622638E2,0E0,0E0,0E0,0E0,3.739407E2,1.3135807E3,1.9722986E2,9.4775604E1,1.5337521E2,1.3115582E2,2.551828E2,1.03394455E2,6.30188E-3,2.5203491E1,0E0,0E0,3.8263657E1,7.573304E1,2.0122409E-1,1.4289429E1,2.3613715E2,0E0,3.5534952E2,6.076085E1,1.824493E2,2.085324E2,4.928771E2,2.18271E2,6.763738E2,1.7325941E2,1.2321762E2,2.0187514E2,0E0,0E0,0E0,0E0,0E0,0E0,0E0,0E0,0E0,0E0,0E0,0E0,0E0,0E0,0E0,0E0,0E0,0E0,0E0,0E0,0E0,0E0,0E0,0E0,0E0,0E0,0E0,0E0,0E0,0E0,0E0,0E0,0E0,0E0,0E0,0E0,0E0,0E0,0E0,0E0,0E0,0E0],"parents":[2147483647,0,0,1,1,2,2,3,3,4,4,5,5,6,6,7,7,8,8,9,9,10,10,11,11,12,12,13,13,14,14,15,15,16,16,17,17,18,18,19,19,20,20,21,21,22,22,27,27,28,28,29,29,30,30,31,31,32,32,33,33,34,34,35,35,36,36,39,39,40,40,41,41,42,42,43,43,45,45,46,46,47,47,48,48,49,49,50,50,51,51,52,52,53,53,54,54],"right_children":[2,4,6,8,10,12,14,16,18,20,22,24,26,28,30,32,34,36,38,40,42,44,46,-1,-1,-1,-1,48,50,52,54,56,58,60,62,64,66,-1,-1,68,70,72,74,76,-1,78,80,82,84,86,88,90,92,94,96,-1,-1,-1,-1,-1,-1,-1,-1,-1,-1,-1,-1,-1,-1,-1,-1,-1,-1,-1,-1,-1,-1,-1,-1,-1,-1,-1,-1,-1,-1,-1,-1,-1,-1,-1,-1,-1,-1,-1,-1,-1,-1],"split_conditions":[1.3E1,6E0,6.6001785E1,3.77E1,7E0,6E0,1.3E1,1.1147857E2,1.0476786E0,3.784E1,